digraph Tree {
node [shape=box, style="rounded", color="black", fontname=helvetica] ;
edge [fontname=helvetica] ;
0 [label="alcohol <= 10.7\nmse = 0.8\nsamples = 2496\nvalue = 5.9"] ;
1 [label="volatile acidity <= 0.3\nmse = 0.6\nsamples = 1474\nvalue = 5.6"] ;
0 -> 1 [labeldistance=2.5, labelangle=45, headlabel="True"] ;
2 [label="density <= 1.0\nmse = 0.6\nsamples = 770\nvalue = 5.8"] ;
1 -> 2 ;
3 [label="free sulfur dioxide <= 14.5\nmse = 0.5\nsamples = 592\nvalue = 5.8"] ;
2 -> 3 ;
4 [label="residual sugar <= 4.2\nmse = 0.8\nsamples = 40\nvalue = 5.2"] ;
3 -> 4 ;
5 [label="free sulfur dioxide <= 6.5\nmse = 0.5\nsamples = 31\nvalue = 4.9"] ;
4 -> 5 ;
6 [label="pH <= 2.9\nmse = 0.4\nsamples = 6\nvalue = 3.9"] ;
5 -> 6 ;
7 [label="mse = 0.0\nsamples = 1\nvalue = 3.0"] ;
6 -> 7 ;
8 [label="alcohol <= 9.9\nmse = 0.1\nsamples = 5\nvalue = 4.2"] ;
6 -> 8 ;
9 [label="mse = 0.0\nsamples = 1\nvalue = 5.0"] ;
8 -> 9 ;
10 [label="mse = 0.0\nsamples = 4\nvalue = 4.0"] ;
8 -> 10 ;
11 [label="total sulfur dioxide <= 44.5\nmse = 0.3\nsamples = 25\nvalue = 5.1"] ;
5 -> 11 ;
12 [label="mse = 0.0\nsamples = 1\nvalue = 6.0"] ;
11 -> 12 ;
13 [label="density <= 1.0\nmse = 0.3\nsamples = 24\nvalue = 5.0"] ;
11 -> 13 ;
14 [label="fixed acidity <= 6.8\nmse = 0.7\nsamples = 3\nvalue = 5.8"] ;
13 -> 14 ;
15 [label="sulphates <= 0.6\nmse = 0.2\nsamples = 2\nvalue = 6.5"] ;
14 -> 15 ;
16 [label="mse = 0.0\nsamples = 1\nvalue = 6.0"] ;
15 -> 16 ;
17 [label="mse = 0.0\nsamples = 1\nvalue = 7.0"] ;
15 -> 17 ;
18 [label="mse = 0.0\nsamples = 1\nvalue = 5.0"] ;
14 -> 18 ;
19 [label="residual sugar <= 3.1\nmse = 0.2\nsamples = 21\nvalue = 4.9"] ;
13 -> 19 ;
20 [label="alcohol <= 9.3\nmse = 0.1\nsamples = 20\nvalue = 5.0"] ;
19 -> 20 ;
21 [label="mse = 0.0\nsamples = 1\nvalue = 6.0"] ;
20 -> 21 ;
22 [label="chlorides <= 0.2\nmse = 0.1\nsamples = 19\nvalue = 4.9"] ;
20 -> 22 ;
23 [label="free sulfur dioxide <= 13.5\nmse = 0.1\nsamples = 18\nvalue = 4.9"] ;
22 -> 23 ;
24 [label="citric acid <= 0.2\nmse = 0.0\nsamples = 16\nvalue = 5.0"] ;
23 -> 24 ;
25 [label="chlorides <= 0.1\nmse = 0.2\nsamples = 2\nvalue = 4.7"] ;
24 -> 25 ;
26 [label="mse = 0.0\nsamples = 1\nvalue = 4.0"] ;
25 -> 26 ;
27 [label="mse = 0.0\nsamples = 1\nvalue = 5.0"] ;
25 -> 27 ;
28 [label="mse = 0.0\nsamples = 14\nvalue = 5.0"] ;
24 -> 28 ;
29 [label="fixed acidity <= 7.3\nmse = 0.2\nsamples = 2\nvalue = 4.5"] ;
23 -> 29 ;
30 [label="mse = 0.0\nsamples = 1\nvalue = 5.0"] ;
29 -> 30 ;
31 [label="mse = 0.0\nsamples = 1\nvalue = 4.0"] ;
29 -> 31 ;
32 [label="mse = 0.0\nsamples = 1\nvalue = 6.0"] ;
22 -> 32 ;
33 [label="mse = 0.0\nsamples = 1\nvalue = 4.0"] ;
19 -> 33 ;
34 [label="volatile acidity <= 0.2\nmse = 0.7\nsamples = 9\nvalue = 6.1"] ;
4 -> 34 ;
35 [label="mse = 0.0\nsamples = 1\nvalue = 8.0"] ;
34 -> 35 ;
36 [label="sulphates <= 0.3\nmse = 0.5\nsamples = 8\nvalue = 6.0"] ;
34 -> 36 ;
37 [label="mse = 0.0\nsamples = 2\nvalue = 5.0"] ;
36 -> 37 ;
38 [label="density <= 1.0\nmse = 0.3\nsamples = 6\nvalue = 6.2"] ;
36 -> 38 ;
39 [label="mse = 0.0\nsamples = 4\nvalue = 6.0"] ;
38 -> 39 ;
40 [label="total sulfur dioxide <= 105.0\nmse = 1.0\nsamples = 2\nvalue = 7.0"] ;
38 -> 40 ;
41 [label="mse = 0.0\nsamples = 1\nvalue = 8.0"] ;
40 -> 41 ;
42 [label="mse = 0.0\nsamples = 1\nvalue = 6.0"] ;
40 -> 42 ;
43 [label="alcohol <= 9.7\nmse = 0.5\nsamples = 552\nvalue = 5.8"] ;
3 -> 43 ;
44 [label="sulphates <= 0.5\nmse = 0.4\nsamples = 208\nvalue = 5.6"] ;
43 -> 44 ;
45 [label="volatile acidity <= 0.2\nmse = 0.3\nsamples = 178\nvalue = 5.6"] ;
44 -> 45 ;
46 [label="total sulfur dioxide <= 109.5\nmse = 0.3\nsamples = 73\nvalue = 5.7"] ;
45 -> 46 ;
47 [label="pH <= 3.2\nmse = 0.2\nsamples = 19\nvalue = 5.4"] ;
46 -> 47 ;
48 [label="citric acid <= 0.4\nmse = 0.2\nsamples = 7\nvalue = 5.8"] ;
47 -> 48 ;
49 [label="mse = 0.0\nsamples = 6\nvalue = 6.0"] ;
48 -> 49 ;
50 [label="mse = 0.0\nsamples = 1\nvalue = 5.0"] ;
48 -> 50 ;
51 [label="residual sugar <= 6.8\nmse = 0.1\nsamples = 12\nvalue = 5.2"] ;
47 -> 51 ;
52 [label="chlorides <= 0.0\nmse = 0.1\nsamples = 10\nvalue = 5.1"] ;
51 -> 52 ;
53 [label="mse = 0.0\nsamples = 1\nvalue = 6.0"] ;
52 -> 53 ;
54 [label="mse = 0.0\nsamples = 9\nvalue = 5.0"] ;
52 -> 54 ;
55 [label="mse = 0.0\nsamples = 2\nvalue = 6.0"] ;
51 -> 55 ;
56 [label="chlorides <= 0.1\nmse = 0.3\nsamples = 54\nvalue = 5.8"] ;
46 -> 56 ;
57 [label="density <= 1.0\nmse = 0.3\nsamples = 37\nvalue = 6.0"] ;
56 -> 57 ;
58 [label="mse = 0.0\nsamples = 2\nvalue = 7.0"] ;
57 -> 58 ;
59 [label="sulphates <= 0.4\nmse = 0.3\nsamples = 35\nvalue = 5.9"] ;
57 -> 59 ;
60 [label="mse = 0.0\nsamples = 1\nvalue = 5.0"] ;
59 -> 60 ;
61 [label="citric acid <= 0.2\nmse = 0.3\nsamples = 34\nvalue = 6.0"] ;
59 -> 61 ;
62 [label="fixed acidity <= 5.6\nmse = 0.2\nsamples = 4\nvalue = 5.4"] ;
61 -> 62 ;
63 [label="mse = 0.0\nsamples = 2\nvalue = 6.0"] ;
62 -> 63 ;
64 [label="mse = 0.0\nsamples = 2\nvalue = 5.0"] ;
62 -> 64 ;
65 [label="total sulfur dioxide <= 167.5\nmse = 0.2\nsamples = 30\nvalue = 6.0"] ;
61 -> 65 ;
66 [label="pH <= 3.2\nmse = 0.1\nsamples = 26\nvalue = 6.1"] ;
65 -> 66 ;
67 [label="chlorides <= 0.0\nmse = 0.0\nsamples = 14\nvalue = 6.0"] ;
66 -> 67 ;
68 [label="mse = 0.0\nsamples = 1\nvalue = 5.0"] ;
67 -> 68 ;
69 [label="mse = 0.0\nsamples = 13\nvalue = 6.0"] ;
67 -> 69 ;
70 [label="volatile acidity <= 0.2\nmse = 0.2\nsamples = 12\nvalue = 6.3"] ;
66 -> 70 ;
71 [label="free sulfur dioxide <= 33.5\nmse = 0.1\nsamples = 4\nvalue = 6.8"] ;
70 -> 71 ;
72 [label="mse = 0.0\nsamples = 1\nvalue = 6.0"] ;
71 -> 72 ;
73 [label="mse = 0.0\nsamples = 3\nvalue = 7.0"] ;
71 -> 73 ;
74 [label="free sulfur dioxide <= 22.5\nmse = 0.1\nsamples = 8\nvalue = 6.1"] ;
70 -> 74 ;
75 [label="mse = 0.0\nsamples = 1\nvalue = 7.0"] ;
74 -> 75 ;
76 [label="mse = 0.0\nsamples = 7\nvalue = 6.0"] ;
74 -> 76 ;
77 [label="free sulfur dioxide <= 43.5\nmse = 0.5\nsamples = 4\nvalue = 5.6"] ;
65 -> 77 ;
78 [label="sulphates <= 0.4\nmse = 0.2\nsamples = 2\nvalue = 4.5"] ;
77 -> 78 ;
79 [label="mse = 0.0\nsamples = 1\nvalue = 5.0"] ;
78 -> 79 ;
80 [label="mse = 0.0\nsamples = 1\nvalue = 4.0"] ;
78 -> 80 ;
81 [label="mse = 0.0\nsamples = 2\nvalue = 6.0"] ;
77 -> 81 ;
82 [label="fixed acidity <= 7.0\nmse = 0.2\nsamples = 17\nvalue = 5.6"] ;
56 -> 82 ;
83 [label="chlorides <= 0.1\nmse = 0.1\nsamples = 10\nvalue = 5.9"] ;
82 -> 83 ;
84 [label="citric acid <= 0.3\nmse = 0.2\nsamples = 3\nvalue = 5.3"] ;
83 -> 84 ;
85 [label="mse = 0.0\nsamples = 1\nvalue = 6.0"] ;
84 -> 85 ;
86 [label="mse = 0.0\nsamples = 2\nvalue = 5.0"] ;
84 -> 86 ;
87 [label="mse = 0.0\nsamples = 7\nvalue = 6.0"] ;
83 -> 87 ;
88 [label="total sulfur dioxide <= 134.0\nmse = 0.2\nsamples = 7\nvalue = 5.2"] ;
82 -> 88 ;
89 [label="mse = 0.0\nsamples = 4\nvalue = 5.0"] ;
88 -> 89 ;
90 [label="residual sugar <= 1.2\nmse = 0.2\nsamples = 3\nvalue = 5.8"] ;
88 -> 90 ;
91 [label="mse = 0.0\nsamples = 1\nvalue = 5.0"] ;
90 -> 91 ;
92 [label="mse = 0.0\nsamples = 2\nvalue = 6.0"] ;
90 -> 92 ;
93 [label="pH <= 3.5\nmse = 0.3\nsamples = 105\nvalue = 5.5"] ;
45 -> 93 ;
94 [label="total sulfur dioxide <= 189.2\nmse = 0.3\nsamples = 103\nvalue = 5.5"] ;
93 -> 94 ;
95 [label="sulphates <= 0.4\nmse = 0.3\nsamples = 72\nvalue = 5.4"] ;
94 -> 95 ;
96 [label="free sulfur dioxide <= 59.0\nmse = 0.2\nsamples = 28\nvalue = 5.2"] ;
95 -> 96 ;
97 [label="free sulfur dioxide <= 36.5\nmse = 0.1\nsamples = 27\nvalue = 5.1"] ;
96 -> 97 ;
98 [label="chlorides <= 0.0\nmse = 0.2\nsamples = 9\nvalue = 5.4"] ;
97 -> 98 ;
99 [label="mse = 0.0\nsamples = 4\nvalue = 6.0"] ;
98 -> 99 ;
100 [label="mse = 0.0\nsamples = 5\nvalue = 5.0"] ;
98 -> 100 ;
101 [label="mse = 0.0\nsamples = 18\nvalue = 5.0"] ;
97 -> 101 ;
102 [label="mse = 0.0\nsamples = 1\nvalue = 7.0"] ;
96 -> 102 ;
103 [label="citric acid <= 0.4\nmse = 0.2\nsamples = 44\nvalue = 5.5"] ;
95 -> 103 ;
104 [label="fixed acidity <= 6.1\nmse = 0.2\nsamples = 31\nvalue = 5.7"] ;
103 -> 104 ;
105 [label="mse = 0.0\nsamples = 6\nvalue = 6.0"] ;
104 -> 105 ;
106 [label="fixed acidity <= 6.5\nmse = 0.2\nsamples = 25\nvalue = 5.6"] ;
104 -> 106 ;
107 [label="volatile acidity <= 0.2\nmse = 0.2\nsamples = 12\nvalue = 5.3"] ;
106 -> 107 ;
108 [label="chlorides <= 0.1\nmse = 0.2\nsamples = 4\nvalue = 5.8"] ;
107 -> 108 ;
109 [label="mse = 0.0\nsamples = 3\nvalue = 6.0"] ;
108 -> 109 ;
110 [label="mse = 0.0\nsamples = 1\nvalue = 5.0"] ;
108 -> 110 ;
111 [label="free sulfur dioxide <= 23.5\nmse = 0.1\nsamples = 8\nvalue = 5.1"] ;
107 -> 111 ;
112 [label="mse = 0.0\nsamples = 1\nvalue = 6.0"] ;
111 -> 112 ;
113 [label="mse = 0.0\nsamples = 7\nvalue = 5.0"] ;
111 -> 113 ;
114 [label="total sulfur dioxide <= 122.5\nmse = 0.1\nsamples = 13\nvalue = 5.8"] ;
106 -> 114 ;
115 [label="mse = 0.0\nsamples = 3\nvalue = 5.0"] ;
114 -> 115 ;
116 [label="residual sugar <= 3.1\nmse = 0.0\nsamples = 10\nvalue = 5.9"] ;
114 -> 116 ;
117 [label="mse = 0.0\nsamples = 1\nvalue = 5.0"] ;
116 -> 117 ;
118 [label="mse = 0.0\nsamples = 9\nvalue = 6.0"] ;
116 -> 118 ;
119 [label="sulphates <= 0.5\nmse = 0.1\nsamples = 13\nvalue = 5.1"] ;
103 -> 119 ;
120 [label="fixed acidity <= 6.7\nmse = 0.2\nsamples = 2\nvalue = 5.5"] ;
119 -> 120 ;
121 [label="mse = 0.0\nsamples = 1\nvalue = 5.0"] ;
120 -> 121 ;
122 [label="mse = 0.0\nsamples = 1\nvalue = 6.0"] ;
120 -> 122 ;
123 [label="mse = 0.0\nsamples = 11\nvalue = 5.0"] ;
119 -> 123 ;
124 [label="alcohol <= 8.9\nmse = 0.2\nsamples = 31\nvalue = 5.7"] ;
94 -> 124 ;
125 [label="mse = 0.0\nsamples = 4\nvalue = 5.0"] ;
124 -> 125 ;
126 [label="citric acid <= 0.3\nmse = 0.2\nsamples = 27\nvalue = 5.8"] ;
124 -> 126 ;
127 [label="chlorides <= 0.1\nmse = 0.2\nsamples = 6\nvalue = 5.2"] ;
126 -> 127 ;
128 [label="mse = 0.0\nsamples = 5\nvalue = 5.0"] ;
127 -> 128 ;
129 [label="mse = 0.0\nsamples = 1\nvalue = 6.0"] ;
127 -> 129 ;
130 [label="alcohol <= 9.6\nmse = 0.1\nsamples = 21\nvalue = 5.9"] ;
126 -> 130 ;
131 [label="fixed acidity <= 7.4\nmse = 0.1\nsamples = 19\nvalue = 5.9"] ;
130 -> 131 ;
132 [label="free sulfur dioxide <= 47.0\nmse = 0.0\nsamples = 17\nvalue = 6.0"] ;
131 -> 132 ;
133 [label="residual sugar <= 8.1\nmse = 0.2\nsamples = 2\nvalue = 5.5"] ;
132 -> 133 ;
134 [label="mse = 0.0\nsamples = 1\nvalue = 5.0"] ;
133 -> 134 ;
135 [label="mse = 0.0\nsamples = 1\nvalue = 6.0"] ;
133 -> 135 ;
136 [label="mse = 0.0\nsamples = 15\nvalue = 6.0"] ;
132 -> 136 ;
137 [label="chlorides <= 0.0\nmse = 0.2\nsamples = 2\nvalue = 5.5"] ;
131 -> 137 ;
138 [label="mse = 0.0\nsamples = 1\nvalue = 6.0"] ;
137 -> 138 ;
139 [label="mse = 0.0\nsamples = 1\nvalue = 5.0"] ;
137 -> 139 ;
140 [label="density <= 1.0\nmse = 0.2\nsamples = 2\nvalue = 5.2"] ;
130 -> 140 ;
141 [label="mse = 0.0\nsamples = 1\nvalue = 5.0"] ;
140 -> 141 ;
142 [label="mse = 0.0\nsamples = 1\nvalue = 6.0"] ;
140 -> 142 ;
143 [label="mse = 0.0\nsamples = 2\nvalue = 4.0"] ;
93 -> 143 ;
144 [label="volatile acidity <= 0.3\nmse = 0.4\nsamples = 30\nvalue = 6.0"] ;
44 -> 144 ;
145 [label="fixed acidity <= 8.1\nmse = 0.2\nsamples = 29\nvalue = 5.9"] ;
144 -> 145 ;
146 [label="density <= 1.0\nmse = 0.2\nsamples = 25\nvalue = 6.0"] ;
145 -> 146 ;
147 [label="sulphates <= 0.9\nmse = 0.1\nsamples = 22\nvalue = 6.0"] ;
146 -> 147 ;
148 [label="chlorides <= 0.0\nmse = 0.1\nsamples = 21\nvalue = 5.9"] ;
147 -> 148 ;
149 [label="mse = 0.0\nsamples = 1\nvalue = 5.0"] ;
148 -> 149 ;
150 [label="sulphates <= 0.8\nmse = 0.0\nsamples = 20\nvalue = 6.0"] ;
148 -> 150 ;
151 [label="mse = 0.0\nsamples = 18\nvalue = 6.0"] ;
150 -> 151 ;
152 [label="volatile acidity <= 0.2\nmse = 0.2\nsamples = 2\nvalue = 5.5"] ;
150 -> 152 ;
153 [label="mse = 0.0\nsamples = 1\nvalue = 6.0"] ;
152 -> 153 ;
154 [label="mse = 0.0\nsamples = 1\nvalue = 5.0"] ;
152 -> 154 ;
155 [label="mse = 0.0\nsamples = 1\nvalue = 7.0"] ;
147 -> 155 ;
156 [label="chlorides <= 0.1\nmse = 0.2\nsamples = 3\nvalue = 6.7"] ;
146 -> 156 ;
157 [label="mse = 0.0\nsamples = 2\nvalue = 7.0"] ;
156 -> 157 ;
158 [label="mse = 0.0\nsamples = 1\nvalue = 6.0"] ;
156 -> 158 ;
159 [label="citric acid <= 0.3\nmse = 0.2\nsamples = 4\nvalue = 5.2"] ;
145 -> 159 ;
160 [label="mse = 0.0\nsamples = 1\nvalue = 6.0"] ;
159 -> 160 ;
161 [label="mse = 0.0\nsamples = 3\nvalue = 5.0"] ;
159 -> 161 ;
162 [label="mse = 0.0\nsamples = 1\nvalue = 8.0"] ;
144 -> 162 ;
163 [label="residual sugar <= 15.0\nmse = 0.5\nsamples = 344\nvalue = 5.9"] ;
43 -> 163 ;
164 [label="free sulfur dioxide <= 27.5\nmse = 0.4\nsamples = 335\nvalue = 5.9"] ;
163 -> 164 ;
165 [label="fixed acidity <= 9.1\nmse = 0.4\nsamples = 104\nvalue = 5.7"] ;
164 -> 165 ;
166 [label="total sulfur dioxide <= 127.5\nmse = 0.3\nsamples = 100\nvalue = 5.8"] ;
165 -> 166 ;
167 [label="density <= 1.0\nmse = 0.3\nsamples = 73\nvalue = 5.9"] ;
166 -> 167 ;
168 [label="fixed acidity <= 5.2\nmse = 0.2\nsamples = 44\nvalue = 6.0"] ;
167 -> 168 ;
169 [label="mse = 0.0\nsamples = 1\nvalue = 7.0"] ;
168 -> 169 ;
170 [label="total sulfur dioxide <= 126.0\nmse = 0.2\nsamples = 43\nvalue = 6.0"] ;
168 -> 170 ;
171 [label="density <= 1.0\nmse = 0.2\nsamples = 42\nvalue = 6.0"] ;
170 -> 171 ;
172 [label="volatile acidity <= 0.2\nmse = 0.1\nsamples = 40\nvalue = 5.9"] ;
171 -> 172 ;
173 [label="density <= 1.0\nmse = 0.1\nsamples = 35\nvalue = 6.0"] ;
172 -> 173 ;
174 [label="citric acid <= 0.3\nmse = 0.1\nsamples = 21\nvalue = 6.1"] ;
173 -> 174 ;
175 [label="mse = 0.0\nsamples = 9\nvalue = 6.0"] ;
174 -> 175 ;
176 [label="citric acid <= 0.3\nmse = 0.1\nsamples = 12\nvalue = 6.2"] ;
174 -> 176 ;
177 [label="mse = 0.0\nsamples = 2\nvalue = 7.0"] ;
176 -> 177 ;
178 [label="chlorides <= 0.0\nmse = 0.1\nsamples = 10\nvalue = 6.1"] ;
176 -> 178 ;
179 [label="mse = 0.0\nsamples = 8\nvalue = 6.0"] ;
178 -> 179 ;
180 [label="citric acid <= 0.4\nmse = 0.2\nsamples = 2\nvalue = 6.5"] ;
178 -> 180 ;
181 [label="mse = 0.0\nsamples = 1\nvalue = 6.0"] ;
180 -> 181 ;
182 [label="mse = 0.0\nsamples = 1\nvalue = 7.0"] ;
180 -> 182 ;
183 [label="fixed acidity <= 7.1\nmse = 0.1\nsamples = 14\nvalue = 5.8"] ;
173 -> 183 ;
184 [label="mse = 0.0\nsamples = 9\nvalue = 6.0"] ;
183 -> 184 ;
185 [label="total sulfur dioxide <= 107.0\nmse = 0.2\nsamples = 5\nvalue = 5.5"] ;
183 -> 185 ;
186 [label="mse = 0.0\nsamples = 3\nvalue = 5.0"] ;
185 -> 186 ;
187 [label="mse = 0.0\nsamples = 2\nvalue = 6.0"] ;
185 -> 187 ;
188 [label="free sulfur dioxide <= 18.0\nmse = 0.2\nsamples = 5\nvalue = 5.5"] ;
172 -> 188 ;
189 [label="alcohol <= 10.1\nmse = 0.2\nsamples = 3\nvalue = 5.8"] ;
188 -> 189 ;
190 [label="mse = 0.0\nsamples = 1\nvalue = 5.0"] ;
189 -> 190 ;
191 [label="mse = 0.0\nsamples = 2\nvalue = 6.0"] ;
189 -> 191 ;
192 [label="mse = 0.0\nsamples = 2\nvalue = 5.0"] ;
188 -> 192 ;
193 [label="residual sugar <= 3.9\nmse = 0.2\nsamples = 2\nvalue = 6.7"] ;
171 -> 193 ;
194 [label="mse = 0.0\nsamples = 1\nvalue = 7.0"] ;
193 -> 194 ;
195 [label="mse = 0.0\nsamples = 1\nvalue = 6.0"] ;
193 -> 195 ;
196 [label="mse = 0.0\nsamples = 1\nvalue = 7.0"] ;
170 -> 196 ;
197 [label="density <= 1.0\nmse = 0.3\nsamples = 29\nvalue = 5.6"] ;
167 -> 197 ;
198 [label="total sulfur dioxide <= 116.5\nmse = 0.2\nsamples = 7\nvalue = 5.0"] ;
197 -> 198 ;
199 [label="sulphates <= 0.6\nmse = 0.1\nsamples = 6\nvalue = 4.9"] ;
198 -> 199 ;
200 [label="mse = 0.0\nsamples = 5\nvalue = 5.0"] ;
199 -> 200 ;
201 [label="mse = 0.0\nsamples = 1\nvalue = 4.0"] ;
199 -> 201 ;
202 [label="mse = 0.0\nsamples = 1\nvalue = 6.0"] ;
198 -> 202 ;
203 [label="residual sugar <= 1.8\nmse = 0.1\nsamples = 22\nvalue = 5.9"] ;
197 -> 203 ;
204 [label="mse = 0.0\nsamples = 2\nvalue = 5.0"] ;
203 -> 204 ;
205 [label="chlorides <= 0.1\nmse = 0.1\nsamples = 20\nvalue = 5.9"] ;
203 -> 205 ;
206 [label="chlorides <= 0.0\nmse = 0.0\nsamples = 19\nvalue = 6.0"] ;
205 -> 206 ;
207 [label="residual sugar <= 7.2\nmse = 0.2\nsamples = 4\nvalue = 5.8"] ;
206 -> 207 ;
208 [label="mse = 0.0\nsamples = 1\nvalue = 5.0"] ;
207 -> 208 ;
209 [label="mse = 0.0\nsamples = 3\nvalue = 6.0"] ;
207 -> 209 ;
210 [label="mse = 0.0\nsamples = 15\nvalue = 6.0"] ;
206 -> 210 ;
211 [label="mse = 0.0\nsamples = 1\nvalue = 5.0"] ;
205 -> 211 ;
212 [label="sulphates <= 0.6\nmse = 0.4\nsamples = 27\nvalue = 5.5"] ;
166 -> 212 ;
213 [label="total sulfur dioxide <= 158.0\nmse = 0.2\nsamples = 22\nvalue = 5.6"] ;
212 -> 213 ;
214 [label="alcohol <= 10.4\nmse = 0.2\nsamples = 18\nvalue = 5.8"] ;
213 -> 214 ;
215 [label="pH <= 3.0\nmse = 0.0\nsamples = 12\nvalue = 6.0"] ;
214 -> 215 ;
216 [label="mse = 0.0\nsamples = 1\nvalue = 5.0"] ;
215 -> 216 ;
217 [label="mse = 0.0\nsamples = 11\nvalue = 6.0"] ;
215 -> 217 ;
218 [label="sulphates <= 0.5\nmse = 0.2\nsamples = 6\nvalue = 5.2"] ;
214 -> 218 ;
219 [label="mse = 0.0\nsamples = 4\nvalue = 5.0"] ;
218 -> 219 ;
220 [label="mse = 0.0\nsamples = 2\nvalue = 6.0"] ;
218 -> 220 ;
221 [label="density <= 1.0\nmse = 0.1\nsamples = 4\nvalue = 5.1"] ;
213 -> 221 ;
222 [label="mse = 0.0\nsamples = 3\nvalue = 5.0"] ;
221 -> 222 ;
223 [label="mse = 0.0\nsamples = 1\nvalue = 6.0"] ;
221 -> 223 ;
224 [label="total sulfur dioxide <= 132.5\nmse = 0.5\nsamples = 5\nvalue = 4.9"] ;
212 -> 224 ;
225 [label="sulphates <= 0.6\nmse = 0.2\nsamples = 4\nvalue = 5.3"] ;
224 -> 225 ;
226 [label="mse = 0.0\nsamples = 1\nvalue = 6.0"] ;
225 -> 226 ;
227 [label="mse = 0.0\nsamples = 3\nvalue = 5.0"] ;
225 -> 227 ;
228 [label="mse = 0.0\nsamples = 1\nvalue = 4.0"] ;
224 -> 228 ;
229 [label="residual sugar <= 1.8\nmse = 0.5\nsamples = 4\nvalue = 4.7"] ;
165 -> 229 ;
230 [label="sulphates <= 0.4\nmse = 0.2\nsamples = 2\nvalue = 5.2"] ;
229 -> 230 ;
231 [label="mse = 0.0\nsamples = 1\nvalue = 5.0"] ;
230 -> 231 ;
232 [label="mse = 0.0\nsamples = 1\nvalue = 6.0"] ;
230 -> 232 ;
233 [label="mse = 0.0\nsamples = 2\nvalue = 4.0"] ;
229 -> 233 ;
234 [label="volatile acidity <= 0.2\nmse = 0.4\nsamples = 231\nvalue = 6.0"] ;
164 -> 234 ;
235 [label="chlorides <= 0.0\nmse = 0.5\nsamples = 29\nvalue = 6.5"] ;
234 -> 235 ;
236 [label="residual sugar <= 7.0\nmse = 0.5\nsamples = 6\nvalue = 7.5"] ;
235 -> 236 ;
237 [label="density <= 1.0\nmse = 0.2\nsamples = 2\nvalue = 6.7"] ;
236 -> 237 ;
238 [label="mse = 0.0\nsamples = 1\nvalue = 7.0"] ;
237 -> 238 ;
239 [label="mse = 0.0\nsamples = 1\nvalue = 6.0"] ;
237 -> 239 ;
240 [label="mse = 0.0\nsamples = 4\nvalue = 8.0"] ;
236 -> 240 ;
241 [label="density <= 1.0\nmse = 0.3\nsamples = 23\nvalue = 6.3"] ;
235 -> 241 ;
242 [label="total sulfur dioxide <= 115.0\nmse = 0.4\nsamples = 4\nvalue = 7.1"] ;
241 -> 242 ;
243 [label="mse = 0.0\nsamples = 1\nvalue = 8.0"] ;
242 -> 243 ;
244 [label="citric acid <= 0.3\nmse = 0.2\nsamples = 3\nvalue = 6.8"] ;
242 -> 244 ;
245 [label="mse = 0.0\nsamples = 1\nvalue = 6.0"] ;
244 -> 245 ;
246 [label="mse = 0.0\nsamples = 2\nvalue = 7.0"] ;
244 -> 246 ;
247 [label="free sulfur dioxide <= 29.5\nmse = 0.1\nsamples = 19\nvalue = 6.1"] ;
241 -> 247 ;
248 [label="residual sugar <= 3.3\nmse = 0.2\nsamples = 3\nvalue = 6.7"] ;
247 -> 248 ;
249 [label="mse = 0.0\nsamples = 1\nvalue = 6.0"] ;
248 -> 249 ;
250 [label="mse = 0.0\nsamples = 2\nvalue = 7.0"] ;
248 -> 250 ;
251 [label="density <= 1.0\nmse = 0.0\nsamples = 16\nvalue = 6.0"] ;
247 -> 251 ;
252 [label="pH <= 3.2\nmse = 0.2\nsamples = 2\nvalue = 6.2"] ;
251 -> 252 ;
253 [label="mse = 0.0\nsamples = 1\nvalue = 6.0"] ;
252 -> 253 ;
254 [label="mse = 0.0\nsamples = 1\nvalue = 7.0"] ;
252 -> 254 ;
255 [label="mse = 0.0\nsamples = 14\nvalue = 6.0"] ;
251 -> 255 ;
256 [label="density <= 1.0\nmse = 0.4\nsamples = 202\nvalue = 6.0"] ;
234 -> 256 ;
257 [label="fixed acidity <= 7.2\nmse = 0.4\nsamples = 200\nvalue = 6.0"] ;
256 -> 257 ;
258 [label="free sulfur dioxide <= 69.5\nmse = 0.3\nsamples = 150\nvalue = 5.9"] ;
257 -> 258 ;
259 [label="sulphates <= 0.4\nmse = 0.2\nsamples = 139\nvalue = 5.9"] ;
258 -> 259 ;
260 [label="density <= 1.0\nmse = 0.2\nsamples = 28\nvalue = 5.7"] ;
259 -> 260 ;
261 [label="fixed acidity <= 6.0\nmse = 0.2\nsamples = 6\nvalue = 5.3"] ;
260 -> 261 ;
262 [label="mse = 0.0\nsamples = 3\nvalue = 6.0"] ;
261 -> 262 ;
263 [label="mse = 0.0\nsamples = 3\nvalue = 5.0"] ;
261 -> 263 ;
264 [label="chlorides <= 0.0\nmse = 0.1\nsamples = 22\nvalue = 5.8"] ;
260 -> 264 ;
265 [label="chlorides <= 0.0\nmse = 0.2\nsamples = 9\nvalue = 5.6"] ;
264 -> 265 ;
266 [label="chlorides <= 0.0\nmse = 0.1\nsamples = 6\nvalue = 5.9"] ;
265 -> 266 ;
267 [label="mse = 0.0\nsamples = 1\nvalue = 5.0"] ;
266 -> 267 ;
268 [label="mse = 0.0\nsamples = 5\nvalue = 6.0"] ;
266 -> 268 ;
269 [label="total sulfur dioxide <= 134.5\nmse = 0.1\nsamples = 3\nvalue = 5.2"] ;
265 -> 269 ;
270 [label="mse = 0.0\nsamples = 2\nvalue = 5.0"] ;
269 -> 270 ;
271 [label="mse = 0.0\nsamples = 1\nvalue = 6.0"] ;
269 -> 271 ;
272 [label="mse = 0.0\nsamples = 13\nvalue = 6.0"] ;
264 -> 272 ;
273 [label="chlorides <= 0.0\nmse = 0.2\nsamples = 111\nvalue = 6.0"] ;
259 -> 273 ;
274 [label="density <= 1.0\nmse = 0.3\nsamples = 26\nvalue = 6.2"] ;
273 -> 274 ;
275 [label="total sulfur dioxide <= 91.0\nmse = 0.1\nsamples = 10\nvalue = 5.8"] ;
274 -> 275 ;
276 [label="mse = 0.0\nsamples = 1\nvalue = 5.0"] ;
275 -> 276 ;
277 [label="alcohol <= 10.0\nmse = 0.1\nsamples = 9\nvalue = 5.9"] ;
275 -> 277 ;
278 [label="mse = 0.0\nsamples = 1\nvalue = 5.0"] ;
277 -> 278 ;
279 [label="total sulfur dioxide <= 146.0\nmse = 0.1\nsamples = 8\nvalue = 5.9"] ;
277 -> 279 ;
280 [label="mse = 0.0\nsamples = 7\nvalue = 6.0"] ;
279 -> 280 ;
281 [label="mse = 0.0\nsamples = 1\nvalue = 5.0"] ;
279 -> 281 ;
282 [label="total sulfur dioxide <= 160.5\nmse = 0.2\nsamples = 16\nvalue = 6.5"] ;
274 -> 282 ;
283 [label="residual sugar <= 1.6\nmse = 0.1\nsamples = 9\nvalue = 6.9"] ;
282 -> 283 ;
284 [label="mse = 0.0\nsamples = 1\nvalue = 6.0"] ;
283 -> 284 ;
285 [label="mse = 0.0\nsamples = 8\nvalue = 7.0"] ;
283 -> 285 ;
286 [label="alcohol <= 9.8\nmse = 0.1\nsamples = 7\nvalue = 6.1"] ;
282 -> 286 ;
287 [label="chlorides <= 0.0\nmse = 0.2\nsamples = 2\nvalue = 6.5"] ;
286 -> 287 ;
288 [label="mse = 0.0\nsamples = 1\nvalue = 6.0"] ;
287 -> 288 ;
289 [label="mse = 0.0\nsamples = 1\nvalue = 7.0"] ;
287 -> 289 ;
290 [label="mse = 0.0\nsamples = 5\nvalue = 6.0"] ;
286 -> 290 ;
291 [label="citric acid <= 0.5\nmse = 0.2\nsamples = 85\nvalue = 5.9"] ;
273 -> 291 ;
292 [label="total sulfur dioxide <= 248.0\nmse = 0.2\nsamples = 81\nvalue = 5.9"] ;
291 -> 292 ;
293 [label="residual sugar <= 1.4\nmse = 0.1\nsamples = 80\nvalue = 5.9"] ;
292 -> 293 ;
294 [label="chlorides <= 0.0\nmse = 0.2\nsamples = 4\nvalue = 5.5"] ;
293 -> 294 ;
295 [label="mse = 0.0\nsamples = 2\nvalue = 5.0"] ;
294 -> 295 ;
296 [label="mse = 0.0\nsamples = 2\nvalue = 6.0"] ;
294 -> 296 ;
297 [label="citric acid <= 0.2\nmse = 0.1\nsamples = 76\nvalue = 6.0"] ;
293 -> 297 ;
298 [label="residual sugar <= 5.5\nmse = 0.2\nsamples = 5\nvalue = 5.5"] ;
297 -> 298 ;
299 [label="mse = 0.0\nsamples = 2\nvalue = 6.0"] ;
298 -> 299 ;
300 [label="mse = 0.0\nsamples = 3\nvalue = 5.0"] ;
298 -> 300 ;
301 [label="volatile acidity <= 0.2\nmse = 0.1\nsamples = 71\nvalue = 6.0"] ;
297 -> 301 ;
302 [label="fixed acidity <= 7.2\nmse = 0.1\nsamples = 48\nvalue = 5.9"] ;
301 -> 302 ;
303 [label="density <= 1.0\nmse = 0.1\nsamples = 47\nvalue = 5.9"] ;
302 -> 303 ;
304 [label="volatile acidity <= 0.2\nmse = 0.0\nsamples = 46\nvalue = 6.0"] ;
303 -> 304 ;
305 [label="sulphates <= 0.5\nmse = 0.2\nsamples = 5\nvalue = 5.7"] ;
304 -> 305 ;
306 [label="mse = 0.0\nsamples = 2\nvalue = 5.0"] ;
305 -> 306 ;
307 [label="mse = 0.0\nsamples = 3\nvalue = 6.0"] ;
305 -> 307 ;
308 [label="pH <= 3.1\nmse = 0.0\nsamples = 41\nvalue = 6.0"] ;
304 -> 308 ;
309 [label="fixed acidity <= 6.4\nmse = 0.1\nsamples = 7\nvalue = 5.9"] ;
308 -> 309 ;
310 [label="mse = 0.0\nsamples = 1\nvalue = 5.0"] ;
309 -> 310 ;
311 [label="mse = 0.0\nsamples = 6\nvalue = 6.0"] ;
309 -> 311 ;
312 [label="mse = 0.0\nsamples = 34\nvalue = 6.0"] ;
308 -> 312 ;
313 [label="mse = 0.0\nsamples = 1\nvalue = 5.0"] ;
303 -> 313 ;
314 [label="mse = 0.0\nsamples = 1\nvalue = 5.0"] ;
302 -> 314 ;
315 [label="residual sugar <= 2.1\nmse = 0.2\nsamples = 23\nvalue = 6.1"] ;
301 -> 315 ;
316 [label="mse = 0.0\nsamples = 2\nvalue = 7.0"] ;
315 -> 316 ;
317 [label="chlorides <= 0.1\nmse = 0.1\nsamples = 21\nvalue = 6.1"] ;
315 -> 317 ;
318 [label="citric acid <= 0.3\nmse = 0.1\nsamples = 20\nvalue = 6.1"] ;
317 -> 318 ;
319 [label="chlorides <= 0.0\nmse = 0.0\nsamples = 16\nvalue = 6.0"] ;
318 -> 319 ;
320 [label="sulphates <= 0.6\nmse = 0.2\nsamples = 3\nvalue = 6.2"] ;
319 -> 320 ;
321 [label="mse = 0.0\nsamples = 1\nvalue = 7.0"] ;
320 -> 321 ;
322 [label="mse = 0.0\nsamples = 2\nvalue = 6.0"] ;
320 -> 322 ;
323 [label="mse = 0.0\nsamples = 13\nvalue = 6.0"] ;
319 -> 323 ;
324 [label="free sulfur dioxide <= 50.0\nmse = 0.2\nsamples = 4\nvalue = 6.5"] ;
318 -> 324 ;
325 [label="mse = 0.0\nsamples = 2\nvalue = 7.0"] ;
324 -> 325 ;
326 [label="mse = 0.0\nsamples = 2\nvalue = 6.0"] ;
324 -> 326 ;
327 [label="mse = 0.0\nsamples = 1\nvalue = 5.0"] ;
317 -> 327 ;
328 [label="mse = 0.0\nsamples = 1\nvalue = 5.0"] ;
292 -> 328 ;
329 [label="alcohol <= 10.4\nmse = 0.2\nsamples = 4\nvalue = 5.3"] ;
291 -> 329 ;
330 [label="mse = 0.0\nsamples = 3\nvalue = 5.0"] ;
329 -> 330 ;
331 [label="mse = 0.0\nsamples = 1\nvalue = 6.0"] ;
329 -> 331 ;
332 [label="fixed acidity <= 6.6\nmse = 0.4\nsamples = 11\nvalue = 5.5"] ;
258 -> 332 ;
333 [label="chlorides <= 0.0\nmse = 0.2\nsamples = 3\nvalue = 6.3"] ;
332 -> 333 ;
334 [label="mse = 0.0\nsamples = 1\nvalue = 7.0"] ;
333 -> 334 ;
335 [label="mse = 0.0\nsamples = 2\nvalue = 6.0"] ;
333 -> 335 ;
336 [label="fixed acidity <= 6.9\nmse = 0.2\nsamples = 8\nvalue = 5.2"] ;
332 -> 336 ;
337 [label="mse = 0.0\nsamples = 5\nvalue = 5.0"] ;
336 -> 337 ;
338 [label="density <= 1.0\nmse = 0.2\nsamples = 3\nvalue = 5.7"] ;
336 -> 338 ;
339 [label="mse = 0.0\nsamples = 2\nvalue = 6.0"] ;
338 -> 339 ;
340 [label="mse = 0.0\nsamples = 1\nvalue = 5.0"] ;
338 -> 340 ;
341 [label="citric acid <= 0.3\nmse = 0.6\nsamples = 50\nvalue = 6.2"] ;
257 -> 341 ;
342 [label="alcohol <= 10.1\nmse = 0.3\nsamples = 13\nvalue = 6.7"] ;
341 -> 342 ;
343 [label="density <= 1.0\nmse = 0.2\nsamples = 6\nvalue = 6.2"] ;
342 -> 343 ;
344 [label="mse = 0.0\nsamples = 1\nvalue = 7.0"] ;
343 -> 344 ;
345 [label="mse = 0.0\nsamples = 5\nvalue = 6.0"] ;
343 -> 345 ;
346 [label="total sulfur dioxide <= 151.5\nmse = 0.1\nsamples = 7\nvalue = 7.1"] ;
342 -> 346 ;
347 [label="mse = 0.0\nsamples = 6\nvalue = 7.0"] ;
346 -> 347 ;
348 [label="mse = 0.0\nsamples = 1\nvalue = 8.0"] ;
346 -> 348 ;
349 [label="citric acid <= 0.5\nmse = 0.5\nsamples = 37\nvalue = 6.0"] ;
341 -> 349 ;
350 [label="sulphates <= 0.5\nmse = 0.4\nsamples = 26\nvalue = 5.7"] ;
349 -> 350 ;
351 [label="chlorides <= 0.0\nmse = 0.4\nsamples = 18\nvalue = 5.5"] ;
350 -> 351 ;
352 [label="volatile acidity <= 0.2\nmse = 0.2\nsamples = 10\nvalue = 5.9"] ;
351 -> 352 ;
353 [label="citric acid <= 0.3\nmse = 0.1\nsamples = 7\nvalue = 6.1"] ;
352 -> 353 ;
354 [label="mse = 0.0\nsamples = 1\nvalue = 7.0"] ;
353 -> 354 ;
355 [label="mse = 0.0\nsamples = 6\nvalue = 6.0"] ;
353 -> 355 ;
356 [label="residual sugar <= 1.2\nmse = 0.2\nsamples = 3\nvalue = 5.3"] ;
352 -> 356 ;
357 [label="mse = 0.0\nsamples = 1\nvalue = 6.0"] ;
356 -> 357 ;
358 [label="mse = 0.0\nsamples = 2\nvalue = 5.0"] ;
356 -> 358 ;
359 [label="chlorides <= 0.1\nmse = 0.2\nsamples = 8\nvalue = 5.1"] ;
351 -> 359 ;
360 [label="chlorides <= 0.0\nmse = 0.1\nsamples = 6\nvalue = 4.9"] ;
359 -> 360 ;
361 [label="mse = 0.0\nsamples = 1\nvalue = 4.0"] ;
360 -> 361 ;
362 [label="mse = 0.0\nsamples = 5\nvalue = 5.0"] ;
360 -> 362 ;
363 [label="mse = 0.0\nsamples = 2\nvalue = 6.0"] ;
359 -> 363 ;
364 [label="density <= 1.0\nmse = 0.1\nsamples = 8\nvalue = 6.1"] ;
350 -> 364 ;
365 [label="mse = 0.0\nsamples = 1\nvalue = 7.0"] ;
364 -> 365 ;
366 [label="mse = 0.0\nsamples = 7\nvalue = 6.0"] ;
364 -> 366 ;
367 [label="alcohol <= 10.6\nmse = 0.2\nsamples = 11\nvalue = 6.7"] ;
349 -> 367 ;
368 [label="volatile acidity <= 0.2\nmse = 0.1\nsamples = 8\nvalue = 6.9"] ;
367 -> 368 ;
369 [label="mse = 0.0\nsamples = 7\nvalue = 7.0"] ;
368 -> 369 ;
370 [label="mse = 0.0\nsamples = 1\nvalue = 6.0"] ;
368 -> 370 ;
371 [label="mse = 0.0\nsamples = 3\nvalue = 6.0"] ;
367 -> 371 ;
372 [label="sulphates <= 0.6\nmse = 0.2\nsamples = 2\nvalue = 4.7"] ;
256 -> 372 ;
373 [label="mse = 0.0\nsamples = 1\nvalue = 4.0"] ;
372 -> 373 ;
374 [label="mse = 0.0\nsamples = 1\nvalue = 5.0"] ;
372 -> 374 ;
375 [label="residual sugar <= 15.2\nmse = 1.1\nsamples = 9\nvalue = 5.0"] ;
163 -> 375 ;
376 [label="mse = 0.0\nsamples = 1\nvalue = 3.0"] ;
375 -> 376 ;
377 [label="volatile acidity <= 0.2\nmse = 0.2\nsamples = 8\nvalue = 5.5"] ;
375 -> 377 ;
378 [label="free sulfur dioxide <= 58.0\nmse = 0.1\nsamples = 4\nvalue = 5.9"] ;
377 -> 378 ;
379 [label="mse = 0.0\nsamples = 3\nvalue = 6.0"] ;
378 -> 379 ;
380 [label="mse = 0.0\nsamples = 1\nvalue = 5.0"] ;
378 -> 380 ;
381 [label="mse = 0.0\nsamples = 4\nvalue = 5.0"] ;
377 -> 381 ;
382 [label="pH <= 3.1\nmse = 0.7\nsamples = 178\nvalue = 6.1"] ;
2 -> 382 ;
383 [label="citric acid <= 0.4\nmse = 0.6\nsamples = 101\nvalue = 6.4"] ;
382 -> 383 ;
384 [label="alcohol <= 9.2\nmse = 0.5\nsamples = 75\nvalue = 6.7"] ;
383 -> 384 ;
385 [label="volatile acidity <= 0.2\nmse = 0.4\nsamples = 60\nvalue = 6.8"] ;
384 -> 385 ;
386 [label="chlorides <= 0.1\nmse = 0.3\nsamples = 32\nvalue = 7.2"] ;
385 -> 386 ;
387 [label="sulphates <= 0.5\nmse = 0.1\nsamples = 20\nvalue = 6.9"] ;
386 -> 387 ;
388 [label="chlorides <= 0.1\nmse = 0.0\nsamples = 18\nvalue = 7.0"] ;
387 -> 388 ;
389 [label="mse = 0.0\nsamples = 17\nvalue = 7.0"] ;
388 -> 389 ;
390 [label="mse = 0.0\nsamples = 1\nvalue = 6.0"] ;
388 -> 390 ;
391 [label="mse = 0.0\nsamples = 2\nvalue = 6.0"] ;
387 -> 391 ;
392 [label="residual sugar <= 13.8\nmse = 0.2\nsamples = 12\nvalue = 7.6"] ;
386 -> 392 ;
393 [label="mse = 0.0\nsamples = 4\nvalue = 7.0"] ;
392 -> 393 ;
394 [label="mse = 0.0\nsamples = 8\nvalue = 8.0"] ;
392 -> 394 ;
395 [label="total sulfur dioxide <= 186.0\nmse = 0.3\nsamples = 28\nvalue = 6.5"] ;
385 -> 395 ;
396 [label="pH <= 3.1\nmse = 0.2\nsamples = 16\nvalue = 6.1"] ;
395 -> 396 ;
397 [label="fixed acidity <= 7.7\nmse = 0.0\nsamples = 14\nvalue = 6.0"] ;
396 -> 397 ;
398 [label="mse = 0.0\nsamples = 12\nvalue = 6.0"] ;
397 -> 398 ;
399 [label="pH <= 3.0\nmse = 0.2\nsamples = 2\nvalue = 5.7"] ;
397 -> 399 ;
400 [label="mse = 0.0\nsamples = 1\nvalue = 6.0"] ;
399 -> 400 ;
401 [label="mse = 0.0\nsamples = 1\nvalue = 5.0"] ;
399 -> 401 ;
402 [label="mse = 0.0\nsamples = 2\nvalue = 7.0"] ;
396 -> 402 ;
403 [label="pH <= 3.1\nmse = 0.1\nsamples = 12\nvalue = 6.9"] ;
395 -> 403 ;
404 [label="mse = 0.0\nsamples = 9\nvalue = 7.0"] ;
403 -> 404 ;
405 [label="sulphates <= 0.4\nmse = 0.2\nsamples = 3\nvalue = 6.6"] ;
403 -> 405 ;
406 [label="mse = 0.0\nsamples = 1\nvalue = 7.0"] ;
405 -> 406 ;
407 [label="mse = 0.0\nsamples = 2\nvalue = 6.0"] ;
405 -> 407 ;
408 [label="citric acid <= 0.2\nmse = 0.2\nsamples = 15\nvalue = 6.0"] ;
384 -> 408 ;
409 [label="mse = 0.0\nsamples = 2\nvalue = 5.0"] ;
408 -> 409 ;
410 [label="residual sugar <= 11.3\nmse = 0.2\nsamples = 13\nvalue = 6.1"] ;
408 -> 410 ;
411 [label="mse = 0.0\nsamples = 1\nvalue = 5.0"] ;
410 -> 411 ;
412 [label="volatile acidity <= 0.2\nmse = 0.1\nsamples = 12\nvalue = 6.1"] ;
410 -> 412 ;
413 [label="mse = 0.0\nsamples = 9\nvalue = 6.0"] ;
412 -> 413 ;
414 [label="pH <= 3.1\nmse = 0.2\nsamples = 3\nvalue = 6.5"] ;
412 -> 414 ;
415 [label="mse = 0.0\nsamples = 2\nvalue = 6.0"] ;
414 -> 415 ;
416 [label="mse = 0.0\nsamples = 1\nvalue = 7.0"] ;
414 -> 416 ;
417 [label="citric acid <= 0.5\nmse = 0.2\nsamples = 26\nvalue = 5.6"] ;
383 -> 417 ;
418 [label="mse = 0.0\nsamples = 6\nvalue = 6.0"] ;
417 -> 418 ;
419 [label="alcohol <= 9.1\nmse = 0.2\nsamples = 20\nvalue = 5.5"] ;
417 -> 419 ;
420 [label="mse = 0.0\nsamples = 6\nvalue = 5.0"] ;
419 -> 420 ;
421 [label="pH <= 3.1\nmse = 0.2\nsamples = 14\nvalue = 5.7"] ;
419 -> 421 ;
422 [label="sulphates <= 0.4\nmse = 0.2\nsamples = 12\nvalue = 5.8"] ;
421 -> 422 ;
423 [label="total sulfur dioxide <= 119.5\nmse = 0.2\nsamples = 6\nvalue = 5.4"] ;
422 -> 423 ;
424 [label="mse = 0.0\nsamples = 2\nvalue = 6.0"] ;
423 -> 424 ;
425 [label="mse = 0.0\nsamples = 4\nvalue = 5.0"] ;
423 -> 425 ;
426 [label="mse = 0.0\nsamples = 6\nvalue = 6.0"] ;
422 -> 426 ;
427 [label="mse = 0.0\nsamples = 2\nvalue = 5.0"] ;
421 -> 427 ;
428 [label="volatile acidity <= 0.2\nmse = 0.6\nsamples = 77\nvalue = 5.8"] ;
382 -> 428 ;
429 [label="free sulfur dioxide <= 33.0\nmse = 0.5\nsamples = 44\nvalue = 6.0"] ;
428 -> 429 ;
430 [label="mse = 0.0\nsamples = 4\nvalue = 5.0"] ;
429 -> 430 ;
431 [label="fixed acidity <= 7.2\nmse = 0.4\nsamples = 40\nvalue = 6.1"] ;
429 -> 431 ;
432 [label="sulphates <= 0.8\nmse = 0.3\nsamples = 25\nvalue = 5.9"] ;
431 -> 432 ;
433 [label="density <= 1.0\nmse = 0.2\nsamples = 23\nvalue = 5.8"] ;
432 -> 433 ;
434 [label="sulphates <= 0.7\nmse = 0.1\nsamples = 20\nvalue = 5.9"] ;
433 -> 434 ;
435 [label="pH <= 3.6\nmse = 0.0\nsamples = 17\nvalue = 6.0"] ;
434 -> 435 ;
436 [label="mse = 0.0\nsamples = 16\nvalue = 6.0"] ;
435 -> 436 ;
437 [label="mse = 0.0\nsamples = 1\nvalue = 5.0"] ;
435 -> 437 ;
438 [label="volatile acidity <= 0.2\nmse = 0.2\nsamples = 3\nvalue = 5.4"] ;
434 -> 438 ;
439 [label="mse = 0.0\nsamples = 1\nvalue = 6.0"] ;
438 -> 439 ;
440 [label="mse = 0.0\nsamples = 2\nvalue = 5.0"] ;
438 -> 440 ;
441 [label="mse = 0.0\nsamples = 3\nvalue = 5.0"] ;
433 -> 441 ;
442 [label="mse = 0.0\nsamples = 2\nvalue = 7.0"] ;
432 -> 442 ;
443 [label="free sulfur dioxide <= 50.5\nmse = 0.5\nsamples = 15\nvalue = 6.6"] ;
431 -> 443 ;
444 [label="volatile acidity <= 0.2\nmse = 0.2\nsamples = 7\nvalue = 7.4"] ;
443 -> 444 ;
445 [label="mse = 0.0\nsamples = 3\nvalue = 8.0"] ;
444 -> 445 ;
446 [label="mse = 0.0\nsamples = 4\nvalue = 7.0"] ;
444 -> 446 ;
447 [label="mse = 0.0\nsamples = 8\nvalue = 6.0"] ;
443 -> 447 ;
448 [label="fixed acidity <= 7.5\nmse = 0.4\nsamples = 33\nvalue = 5.4"] ;
428 -> 448 ;
449 [label="sulphates <= 0.4\nmse = 0.3\nsamples = 30\nvalue = 5.5"] ;
448 -> 449 ;
450 [label="mse = 0.0\nsamples = 6\nvalue = 5.0"] ;
449 -> 450 ;
451 [label="chlorides <= 0.0\nmse = 0.3\nsamples = 24\nvalue = 5.7"] ;
449 -> 451 ;
452 [label="fixed acidity <= 7.4\nmse = 0.1\nsamples = 12\nvalue = 6.0"] ;
451 -> 452 ;
453 [label="sulphates <= 0.7\nmse = 0.1\nsamples = 11\nvalue = 6.1"] ;
452 -> 453 ;
454 [label="mse = 0.0\nsamples = 10\nvalue = 6.0"] ;
453 -> 454 ;
455 [label="mse = 0.0\nsamples = 1\nvalue = 7.0"] ;
453 -> 455 ;
456 [label="mse = 0.0\nsamples = 1\nvalue = 5.0"] ;
452 -> 456 ;
457 [label="free sulfur dioxide <= 18.5\nmse = 0.2\nsamples = 12\nvalue = 5.3"] ;
451 -> 457 ;
458 [label="mse = 0.0\nsamples = 1\nvalue = 6.0"] ;
457 -> 458 ;
459 [label="pH <= 3.5\nmse = 0.1\nsamples = 11\nvalue = 5.2"] ;
457 -> 459 ;
460 [label="mse = 0.0\nsamples = 8\nvalue = 5.0"] ;
459 -> 460 ;
461 [label="total sulfur dioxide <= 166.0\nmse = 0.2\nsamples = 3\nvalue = 5.7"] ;
459 -> 461 ;
462 [label="mse = 0.0\nsamples = 1\nvalue = 5.0"] ;
461 -> 462 ;
463 [label="mse = 0.0\nsamples = 2\nvalue = 6.0"] ;
461 -> 463 ;
464 [label="total sulfur dioxide <= 149.0\nmse = 0.2\nsamples = 3\nvalue = 4.2"] ;
448 -> 464 ;
465 [label="mse = 0.0\nsamples = 1\nvalue = 5.0"] ;
464 -> 465 ;
466 [label="mse = 0.0\nsamples = 2\nvalue = 4.0"] ;
464 -> 466 ;
467 [label="free sulfur dioxide <= 11.5\nmse = 0.5\nsamples = 704\nvalue = 5.3"] ;
1 -> 467 ;
468 [label="volatile acidity <= 0.5\nmse = 0.6\nsamples = 58\nvalue = 4.8"] ;
467 -> 468 ;
469 [label="pH <= 3.4\nmse = 0.5\nsamples = 46\nvalue = 4.9"] ;
468 -> 469 ;
470 [label="chlorides <= 0.1\nmse = 0.3\nsamples = 44\nvalue = 4.8"] ;
469 -> 470 ;
471 [label="density <= 1.0\nmse = 0.3\nsamples = 40\nvalue = 4.9"] ;
470 -> 471 ;
472 [label="chlorides <= 0.0\nmse = 0.1\nsamples = 18\nvalue = 5.1"] ;
471 -> 472 ;
473 [label="residual sugar <= 2.0\nmse = 0.1\nsamples = 16\nvalue = 5.1"] ;
472 -> 473 ;
474 [label="mse = 0.0\nsamples = 14\nvalue = 5.0"] ;
473 -> 474 ;
475 [label="mse = 0.0\nsamples = 2\nvalue = 6.0"] ;
473 -> 475 ;
476 [label="mse = 0.0\nsamples = 2\nvalue = 6.0"] ;
472 -> 476 ;
477 [label="free sulfur dioxide <= 8.5\nmse = 0.3\nsamples = 22\nvalue = 4.7"] ;
471 -> 477 ;
478 [label="residual sugar <= 4.7\nmse = 0.4\nsamples = 12\nvalue = 4.4"] ;
477 -> 478 ;
479 [label="density <= 1.0\nmse = 0.1\nsamples = 5\nvalue = 3.9"] ;
478 -> 479 ;
480 [label="mse = 0.0\nsamples = 4\nvalue = 4.0"] ;
479 -> 480 ;
481 [label="mse = 0.0\nsamples = 1\nvalue = 3.0"] ;
479 -> 481 ;
482 [label="free sulfur dioxide <= 4.5\nmse = 0.2\nsamples = 7\nvalue = 4.8"] ;
478 -> 482 ;
483 [label="mse = 0.0\nsamples = 1\nvalue = 4.0"] ;
482 -> 483 ;
484 [label="mse = 0.0\nsamples = 6\nvalue = 5.0"] ;
482 -> 484 ;
485 [label="density <= 1.0\nmse = 0.1\nsamples = 10\nvalue = 5.0"] ;
477 -> 485 ;
486 [label="residual sugar <= 1.5\nmse = 0.1\nsamples = 9\nvalue = 4.9"] ;
485 -> 486 ;
487 [label="mse = 0.0\nsamples = 1\nvalue = 4.0"] ;
486 -> 487 ;
488 [label="mse = 0.0\nsamples = 8\nvalue = 5.0"] ;
486 -> 488 ;
489 [label="mse = 0.0\nsamples = 1\nvalue = 6.0"] ;
485 -> 489 ;
490 [label="pH <= 3.1\nmse = 0.1\nsamples = 4\nvalue = 4.1"] ;
470 -> 490 ;
491 [label="mse = 0.0\nsamples = 1\nvalue = 5.0"] ;
490 -> 491 ;
492 [label="mse = 0.0\nsamples = 3\nvalue = 4.0"] ;
490 -> 492 ;
493 [label="mse = 0.0\nsamples = 2\nvalue = 7.0"] ;
469 -> 493 ;
494 [label="free sulfur dioxide <= 5.5\nmse = 0.4\nsamples = 12\nvalue = 4.3"] ;
468 -> 494 ;
495 [label="mse = 0.0\nsamples = 1\nvalue = 3.0"] ;
494 -> 495 ;
496 [label="residual sugar <= 3.2\nmse = 0.2\nsamples = 11\nvalue = 4.4"] ;
494 -> 496 ;
497 [label="sulphates <= 0.3\nmse = 0.1\nsamples = 5\nvalue = 4.1"] ;
496 -> 497 ;
498 [label="mse = 0.0\nsamples = 1\nvalue = 5.0"] ;
497 -> 498 ;
499 [label="mse = 0.0\nsamples = 4\nvalue = 4.0"] ;
497 -> 499 ;
500 [label="sulphates <= 0.4\nmse = 0.2\nsamples = 6\nvalue = 4.8"] ;
496 -> 500 ;
501 [label="mse = 0.0\nsamples = 2\nvalue = 4.0"] ;
500 -> 501 ;
502 [label="mse = 0.0\nsamples = 4\nvalue = 5.0"] ;
500 -> 502 ;
503 [label="chlorides <= 0.0\nmse = 0.4\nsamples = 646\nvalue = 5.3"] ;
467 -> 503 ;
504 [label="alcohol <= 10.2\nmse = 0.4\nsamples = 325\nvalue = 5.5"] ;
503 -> 504 ;
505 [label="pH <= 3.4\nmse = 0.4\nsamples = 274\nvalue = 5.4"] ;
504 -> 505 ;
506 [label="citric acid <= 0.2\nmse = 0.3\nsamples = 263\nvalue = 5.4"] ;
505 -> 506 ;
507 [label="total sulfur dioxide <= 88.0\nmse = 0.2\nsamples = 78\nvalue = 5.1"] ;
506 -> 507 ;
508 [label="chlorides <= 0.0\nmse = 0.2\nsamples = 6\nvalue = 4.5"] ;
507 -> 508 ;
509 [label="pH <= 3.3\nmse = 0.1\nsamples = 4\nvalue = 4.1"] ;
508 -> 509 ;
510 [label="mse = 0.0\nsamples = 3\nvalue = 4.0"] ;
509 -> 510 ;
511 [label="mse = 0.0\nsamples = 1\nvalue = 5.0"] ;
509 -> 511 ;
512 [label="mse = 0.0\nsamples = 2\nvalue = 5.0"] ;
508 -> 512 ;
513 [label="fixed acidity <= 6.0\nmse = 0.2\nsamples = 72\nvalue = 5.2"] ;
507 -> 513 ;
514 [label="sulphates <= 0.5\nmse = 0.2\nsamples = 15\nvalue = 5.5"] ;
513 -> 514 ;
515 [label="free sulfur dioxide <= 56.5\nmse = 0.2\nsamples = 8\nvalue = 5.2"] ;
514 -> 515 ;
516 [label="mse = 0.0\nsamples = 7\nvalue = 5.0"] ;
515 -> 516 ;
517 [label="mse = 0.0\nsamples = 1\nvalue = 6.0"] ;
515 -> 517 ;
518 [label="total sulfur dioxide <= 178.0\nmse = 0.2\nsamples = 7\nvalue = 5.8"] ;
514 -> 518 ;
519 [label="mse = 0.0\nsamples = 5\nvalue = 6.0"] ;
518 -> 519 ;
520 [label="mse = 0.0\nsamples = 2\nvalue = 5.0"] ;
518 -> 520 ;
521 [label="free sulfur dioxide <= 110.2\nmse = 0.1\nsamples = 57\nvalue = 5.1"] ;
513 -> 521 ;
522 [label="volatile acidity <= 0.5\nmse = 0.1\nsamples = 56\nvalue = 5.1"] ;
521 -> 522 ;
523 [label="free sulfur dioxide <= 84.5\nmse = 0.1\nsamples = 53\nvalue = 5.1"] ;
522 -> 523 ;
524 [label="pH <= 3.2\nmse = 0.1\nsamples = 52\nvalue = 5.1"] ;
523 -> 524 ;
525 [label="mse = 0.0\nsamples = 28\nvalue = 5.0"] ;
524 -> 525 ;
526 [label="total sulfur dioxide <= 199.0\nmse = 0.1\nsamples = 24\nvalue = 5.2"] ;
524 -> 526 ;
527 [label="density <= 1.0\nmse = 0.1\nsamples = 23\nvalue = 5.1"] ;
526 -> 527 ;
528 [label="sulphates <= 0.6\nmse = 0.1\nsamples = 22\nvalue = 5.1"] ;
527 -> 528 ;
529 [label="free sulfur dioxide <= 61.0\nmse = 0.1\nsamples = 21\nvalue = 5.1"] ;
528 -> 529 ;
530 [label="total sulfur dioxide <= 136.5\nmse = 0.0\nsamples = 19\nvalue = 5.0"] ;
529 -> 530 ;
531 [label="pH <= 3.2\nmse = 0.1\nsamples = 4\nvalue = 5.1"] ;
530 -> 531 ;
532 [label="mse = 0.0\nsamples = 1\nvalue = 6.0"] ;
531 -> 532 ;
533 [label="mse = 0.0\nsamples = 3\nvalue = 5.0"] ;
531 -> 533 ;
534 [label="mse = 0.0\nsamples = 15\nvalue = 5.0"] ;
530 -> 534 ;
535 [label="citric acid <= 0.1\nmse = 0.2\nsamples = 2\nvalue = 5.5"] ;
529 -> 535 ;
536 [label="mse = 0.0\nsamples = 1\nvalue = 6.0"] ;
535 -> 536 ;
537 [label="mse = 0.0\nsamples = 1\nvalue = 5.0"] ;
535 -> 537 ;
538 [label="mse = 0.0\nsamples = 1\nvalue = 6.0"] ;
528 -> 538 ;
539 [label="mse = 0.0\nsamples = 1\nvalue = 6.0"] ;
527 -> 539 ;
540 [label="mse = 0.0\nsamples = 1\nvalue = 6.0"] ;
526 -> 540 ;
541 [label="mse = 0.0\nsamples = 1\nvalue = 6.0"] ;
523 -> 541 ;
542 [label="residual sugar <= 9.5\nmse = 0.2\nsamples = 3\nvalue = 5.7"] ;
522 -> 542 ;
543 [label="mse = 0.0\nsamples = 2\nvalue = 6.0"] ;
542 -> 543 ;
544 [label="mse = 0.0\nsamples = 1\nvalue = 5.0"] ;
542 -> 544 ;
545 [label="mse = 0.0\nsamples = 1\nvalue = 4.0"] ;
521 -> 545 ;
546 [label="pH <= 3.1\nmse = 0.3\nsamples = 185\nvalue = 5.5"] ;
506 -> 546 ;
547 [label="volatile acidity <= 0.3\nmse = 0.3\nsamples = 58\nvalue = 5.3"] ;
546 -> 547 ;
548 [label="residual sugar <= 12.6\nmse = 0.8\nsamples = 7\nvalue = 6.0"] ;
547 -> 548 ;
549 [label="mse = 0.0\nsamples = 3\nvalue = 5.0"] ;
548 -> 549 ;
550 [label="density <= 1.0\nmse = 0.2\nsamples = 4\nvalue = 6.6"] ;
548 -> 550 ;
551 [label="mse = 0.0\nsamples = 2\nvalue = 7.0"] ;
550 -> 551 ;
552 [label="mse = 0.0\nsamples = 2\nvalue = 6.0"] ;
550 -> 552 ;
553 [label="pH <= 2.9\nmse = 0.2\nsamples = 51\nvalue = 5.2"] ;
547 -> 553 ;
554 [label="mse = 0.0\nsamples = 2\nvalue = 6.0"] ;
553 -> 554 ;
555 [label="chlorides <= 0.0\nmse = 0.2\nsamples = 49\nvalue = 5.2"] ;
553 -> 555 ;
556 [label="free sulfur dioxide <= 16.5\nmse = 0.2\nsamples = 5\nvalue = 5.8"] ;
555 -> 556 ;
557 [label="mse = 0.0\nsamples = 1\nvalue = 5.0"] ;
556 -> 557 ;
558 [label="mse = 0.0\nsamples = 4\nvalue = 6.0"] ;
556 -> 558 ;
559 [label="pH <= 2.9\nmse = 0.2\nsamples = 44\nvalue = 5.1"] ;
555 -> 559 ;
560 [label="mse = 0.0\nsamples = 1\nvalue = 4.0"] ;
559 -> 560 ;
561 [label="fixed acidity <= 6.6\nmse = 0.2\nsamples = 43\nvalue = 5.1"] ;
559 -> 561 ;
562 [label="chlorides <= 0.0\nmse = 0.1\nsamples = 7\nvalue = 4.9"] ;
561 -> 562 ;
563 [label="mse = 0.0\nsamples = 5\nvalue = 5.0"] ;
562 -> 563 ;
564 [label="pH <= 3.1\nmse = 0.2\nsamples = 2\nvalue = 4.7"] ;
562 -> 564 ;
565 [label="mse = 0.0\nsamples = 1\nvalue = 5.0"] ;
564 -> 565 ;
566 [label="mse = 0.0\nsamples = 1\nvalue = 4.0"] ;
564 -> 566 ;
567 [label="fixed acidity <= 7.2\nmse = 0.2\nsamples = 36\nvalue = 5.2"] ;
561 -> 567 ;
568 [label="volatile acidity <= 0.3\nmse = 0.2\nsamples = 10\nvalue = 5.6"] ;
567 -> 568 ;
569 [label="fixed acidity <= 7.1\nmse = 0.2\nsamples = 5\nvalue = 5.2"] ;
568 -> 569 ;
570 [label="mse = 0.0\nsamples = 4\nvalue = 5.0"] ;
569 -> 570 ;
571 [label="mse = 0.0\nsamples = 1\nvalue = 6.0"] ;
569 -> 571 ;
572 [label="total sulfur dioxide <= 213.0\nmse = 0.1\nsamples = 5\nvalue = 5.9"] ;
568 -> 572 ;
573 [label="mse = 0.0\nsamples = 4\nvalue = 6.0"] ;
572 -> 573 ;
574 [label="mse = 0.0\nsamples = 1\nvalue = 5.0"] ;
572 -> 574 ;
575 [label="total sulfur dioxide <= 212.5\nmse = 0.1\nsamples = 26\nvalue = 5.1"] ;
567 -> 575 ;
576 [label="pH <= 3.0\nmse = 0.0\nsamples = 22\nvalue = 5.1"] ;
575 -> 576 ;
577 [label="free sulfur dioxide <= 48.0\nmse = 0.2\nsamples = 7\nvalue = 5.2"] ;
576 -> 577 ;
578 [label="pH <= 3.0\nmse = 0.1\nsamples = 6\nvalue = 5.1"] ;
577 -> 578 ;
579 [label="mse = 0.0\nsamples = 5\nvalue = 5.0"] ;
578 -> 579 ;
580 [label="mse = 0.0\nsamples = 1\nvalue = 6.0"] ;
578 -> 580 ;
581 [label="mse = 0.0\nsamples = 1\nvalue = 6.0"] ;
577 -> 581 ;
582 [label="mse = 0.0\nsamples = 15\nvalue = 5.0"] ;
576 -> 582 ;
583 [label="free sulfur dioxide <= 51.5\nmse = 0.2\nsamples = 4\nvalue = 5.4"] ;
575 -> 583 ;
584 [label="mse = 0.0\nsamples = 2\nvalue = 6.0"] ;
583 -> 584 ;
585 [label="mse = 0.0\nsamples = 2\nvalue = 5.0"] ;
583 -> 585 ;
586 [label="volatile acidity <= 0.3\nmse = 0.3\nsamples = 127\nvalue = 5.6"] ;
546 -> 586 ;
587 [label="free sulfur dioxide <= 18.0\nmse = 0.2\nsamples = 91\nvalue = 5.7"] ;
586 -> 587 ;
588 [label="mse = 0.0\nsamples = 5\nvalue = 5.0"] ;
587 -> 588 ;
589 [label="density <= 1.0\nmse = 0.2\nsamples = 86\nvalue = 5.8"] ;
587 -> 589 ;
590 [label="residual sugar <= 7.8\nmse = 0.2\nsamples = 44\nvalue = 5.6"] ;
589 -> 590 ;
591 [label="citric acid <= 0.5\nmse = 0.2\nsamples = 31\nvalue = 5.8"] ;
590 -> 591 ;
592 [label="free sulfur dioxide <= 28.5\nmse = 0.1\nsamples = 28\nvalue = 5.8"] ;
591 -> 592 ;
593 [label="chlorides <= 0.0\nmse = 0.2\nsamples = 4\nvalue = 5.3"] ;
592 -> 593 ;
594 [label="mse = 0.0\nsamples = 2\nvalue = 6.0"] ;
593 -> 594 ;
595 [label="mse = 0.0\nsamples = 2\nvalue = 5.0"] ;
593 -> 595 ;
596 [label="fixed acidity <= 6.0\nmse = 0.1\nsamples = 24\nvalue = 5.9"] ;
592 -> 596 ;
597 [label="mse = 0.0\nsamples = 1\nvalue = 5.0"] ;
596 -> 597 ;
598 [label="total sulfur dioxide <= 141.0\nmse = 0.1\nsamples = 23\nvalue = 5.9"] ;
596 -> 598 ;
599 [label="mse = 0.0\nsamples = 1\nvalue = 5.0"] ;
598 -> 599 ;
600 [label="sulphates <= 0.7\nmse = 0.1\nsamples = 22\nvalue = 5.9"] ;
598 -> 600 ;
601 [label="chlorides <= 0.0\nmse = 0.0\nsamples = 21\nvalue = 6.0"] ;
600 -> 601 ;
602 [label="mse = 0.0\nsamples = 14\nvalue = 6.0"] ;
601 -> 602 ;
603 [label="citric acid <= 0.3\nmse = 0.1\nsamples = 7\nvalue = 5.8"] ;
601 -> 603 ;
604 [label="mse = 0.0\nsamples = 5\nvalue = 6.0"] ;
603 -> 604 ;
605 [label="mse = 0.0\nsamples = 2\nvalue = 5.0"] ;
603 -> 605 ;
606 [label="mse = 0.0\nsamples = 1\nvalue = 5.0"] ;
600 -> 606 ;
607 [label="mse = 0.0\nsamples = 3\nvalue = 5.0"] ;
591 -> 607 ;
608 [label="fixed acidity <= 6.4\nmse = 0.2\nsamples = 13\nvalue = 5.3"] ;
590 -> 608 ;
609 [label="alcohol <= 9.2\nmse = 0.2\nsamples = 4\nvalue = 5.7"] ;
608 -> 609 ;
610 [label="mse = 0.0\nsamples = 1\nvalue = 5.0"] ;
609 -> 610 ;
611 [label="mse = 0.0\nsamples = 3\nvalue = 6.0"] ;
609 -> 611 ;
612 [label="free sulfur dioxide <= 75.0\nmse = 0.1\nsamples = 9\nvalue = 5.1"] ;
608 -> 612 ;
613 [label="mse = 0.0\nsamples = 8\nvalue = 5.0"] ;
612 -> 613 ;
614 [label="mse = 0.0\nsamples = 1\nvalue = 6.0"] ;
612 -> 614 ;
615 [label="residual sugar <= 15.5\nmse = 0.2\nsamples = 42\nvalue = 5.9"] ;
589 -> 615 ;
616 [label="free sulfur dioxide <= 24.0\nmse = 0.1\nsamples = 31\nvalue = 6.0"] ;
615 -> 616 ;
617 [label="mse = 0.0\nsamples = 1\nvalue = 5.0"] ;
616 -> 617 ;
618 [label="sulphates <= 0.8\nmse = 0.1\nsamples = 30\nvalue = 6.0"] ;
616 -> 618 ;
619 [label="chlorides <= 0.0\nmse = 0.1\nsamples = 29\nvalue = 6.0"] ;
618 -> 619 ;
620 [label="mse = 0.0\nsamples = 1\nvalue = 7.0"] ;
619 -> 620 ;
621 [label="free sulfur dioxide <= 30.0\nmse = 0.0\nsamples = 28\nvalue = 6.0"] ;
619 -> 621 ;
622 [label="fixed acidity <= 7.2\nmse = 0.2\nsamples = 2\nvalue = 6.5"] ;
621 -> 622 ;
623 [label="mse = 0.0\nsamples = 1\nvalue = 7.0"] ;
622 -> 623 ;
624 [label="mse = 0.0\nsamples = 1\nvalue = 6.0"] ;
622 -> 624 ;
625 [label="total sulfur dioxide <= 211.0\nmse = 0.0\nsamples = 26\nvalue = 6.0"] ;
621 -> 625 ;
626 [label="mse = 0.0\nsamples = 24\nvalue = 6.0"] ;
625 -> 626 ;
627 [label="residual sugar <= 12.5\nmse = 0.2\nsamples = 2\nvalue = 5.7"] ;
625 -> 627 ;
628 [label="mse = 0.0\nsamples = 1\nvalue = 6.0"] ;
627 -> 628 ;
629 [label="mse = 0.0\nsamples = 1\nvalue = 5.0"] ;
627 -> 629 ;
630 [label="mse = 0.0\nsamples = 1\nvalue = 7.0"] ;
618 -> 630 ;
631 [label="volatile acidity <= 0.3\nmse = 0.2\nsamples = 11\nvalue = 5.5"] ;
615 -> 631 ;
632 [label="mse = 0.0\nsamples = 2\nvalue = 5.0"] ;
631 -> 632 ;
633 [label="sulphates <= 0.4\nmse = 0.2\nsamples = 9\nvalue = 5.7"] ;
631 -> 633 ;
634 [label="mse = 0.0\nsamples = 1\nvalue = 5.0"] ;
633 -> 634 ;
635 [label="mse = 0.0\nsamples = 8\nvalue = 6.0"] ;
633 -> 635 ;
636 [label="chlorides <= 0.0\nmse = 0.3\nsamples = 36\nvalue = 5.3"] ;
586 -> 636 ;
637 [label="citric acid <= 0.6\nmse = 0.2\nsamples = 32\nvalue = 5.2"] ;
636 -> 637 ;
638 [label="chlorides <= 0.0\nmse = 0.1\nsamples = 29\nvalue = 5.1"] ;
637 -> 638 ;
639 [label="mse = 0.0\nsamples = 2\nvalue = 6.0"] ;
638 -> 639 ;
640 [label="free sulfur dioxide <= 13.5\nmse = 0.1\nsamples = 27\nvalue = 5.0"] ;
638 -> 640 ;
641 [label="mse = 0.0\nsamples = 1\nvalue = 4.0"] ;
640 -> 641 ;
642 [label="pH <= 3.3\nmse = 0.1\nsamples = 26\nvalue = 5.1"] ;
640 -> 642 ;
643 [label="density <= 1.0\nmse = 0.0\nsamples = 25\nvalue = 5.0"] ;
642 -> 643 ;
644 [label="free sulfur dioxide <= 19.0\nmse = 0.0\nsamples = 24\nvalue = 5.0"] ;
643 -> 644 ;
645 [label="fixed acidity <= 6.7\nmse = 0.2\nsamples = 2\nvalue = 5.5"] ;
644 -> 645 ;
646 [label="mse = 0.0\nsamples = 1\nvalue = 6.0"] ;
645 -> 646 ;
647 [label="mse = 0.0\nsamples = 1\nvalue = 5.0"] ;
645 -> 647 ;
648 [label="mse = 0.0\nsamples = 22\nvalue = 5.0"] ;
644 -> 648 ;
649 [label="mse = 0.0\nsamples = 1\nvalue = 6.0"] ;
643 -> 649 ;
650 [label="mse = 0.0\nsamples = 1\nvalue = 6.0"] ;
642 -> 650 ;
651 [label="volatile acidity <= 0.4\nmse = 0.2\nsamples = 3\nvalue = 5.8"] ;
637 -> 651 ;
652 [label="mse = 0.0\nsamples = 1\nvalue = 5.0"] ;
651 -> 652 ;
653 [label="mse = 0.0\nsamples = 2\nvalue = 6.0"] ;
651 -> 653 ;
654 [label="volatile acidity <= 0.4\nmse = 0.2\nsamples = 4\nvalue = 6.3"] ;
636 -> 654 ;
655 [label="mse = 0.0\nsamples = 3\nvalue = 6.0"] ;
654 -> 655 ;
656 [label="mse = 0.0\nsamples = 1\nvalue = 7.0"] ;
654 -> 656 ;
657 [label="citric acid <= 0.2\nmse = 0.2\nsamples = 11\nvalue = 6.2"] ;
505 -> 657 ;
658 [label="residual sugar <= 10.4\nmse = 0.1\nsamples = 4\nvalue = 6.8"] ;
657 -> 658 ;
659 [label="mse = 0.0\nsamples = 3\nvalue = 7.0"] ;
658 -> 659 ;
660 [label="mse = 0.0\nsamples = 1\nvalue = 6.0"] ;
658 -> 660 ;
661 [label="mse = 0.0\nsamples = 7\nvalue = 6.0"] ;
657 -> 661 ;
662 [label="volatile acidity <= 0.3\nmse = 0.8\nsamples = 51\nvalue = 5.9"] ;
504 -> 662 ;
663 [label="citric acid <= 0.4\nmse = 0.8\nsamples = 24\nvalue = 6.3"] ;
662 -> 663 ;
664 [label="density <= 1.0\nmse = 0.5\nsamples = 22\nvalue = 6.1"] ;
663 -> 664 ;
665 [label="volatile acidity <= 0.3\nmse = 0.2\nsamples = 10\nvalue = 6.6"] ;
664 -> 665 ;
666 [label="mse = 0.0\nsamples = 5\nvalue = 6.0"] ;
665 -> 666 ;
667 [label="fixed acidity <= 6.3\nmse = 0.1\nsamples = 5\nvalue = 6.9"] ;
665 -> 667 ;
668 [label="mse = 0.0\nsamples = 1\nvalue = 6.0"] ;
667 -> 668 ;
669 [label="mse = 0.0\nsamples = 4\nvalue = 7.0"] ;
667 -> 669 ;
670 [label="chlorides <= 0.0\nmse = 0.3\nsamples = 12\nvalue = 5.6"] ;
664 -> 670 ;
671 [label="mse = 0.0\nsamples = 4\nvalue = 5.0"] ;
670 -> 671 ;
672 [label="sulphates <= 0.6\nmse = 0.2\nsamples = 8\nvalue = 5.9"] ;
670 -> 672 ;
673 [label="total sulfur dioxide <= 126.5\nmse = 0.1\nsamples = 6\nvalue = 6.1"] ;
672 -> 673 ;
674 [label="mse = 0.0\nsamples = 1\nvalue = 7.0"] ;
673 -> 674 ;
675 [label="mse = 0.0\nsamples = 5\nvalue = 6.0"] ;
673 -> 675 ;
676 [label="mse = 0.0\nsamples = 2\nvalue = 5.0"] ;
672 -> 676 ;
677 [label="residual sugar <= 6.2\nmse = 2.0\nsamples = 2\nvalue = 8.0"] ;
663 -> 677 ;
678 [label="mse = 0.0\nsamples = 1\nvalue = 6.0"] ;
677 -> 678 ;
679 [label="mse = 0.0\nsamples = 1\nvalue = 9.0"] ;
677 -> 679 ;
680 [label="chlorides <= 0.0\nmse = 0.4\nsamples = 27\nvalue = 5.6"] ;
662 -> 680 ;
681 [label="volatile acidity <= 0.4\nmse = 0.2\nsamples = 4\nvalue = 6.3"] ;
680 -> 681 ;
682 [label="mse = 0.0\nsamples = 1\nvalue = 7.0"] ;
681 -> 682 ;
683 [label="mse = 0.0\nsamples = 3\nvalue = 6.0"] ;
681 -> 683 ;
684 [label="fixed acidity <= 8.7\nmse = 0.4\nsamples = 23\nvalue = 5.5"] ;
680 -> 684 ;
685 [label="total sulfur dioxide <= 164.0\nmse = 0.3\nsamples = 22\nvalue = 5.5"] ;
684 -> 685 ;
686 [label="fixed acidity <= 7.2\nmse = 0.3\nsamples = 14\nvalue = 5.7"] ;
685 -> 686 ;
687 [label="alcohol <= 10.3\nmse = 0.1\nsamples = 8\nvalue = 5.9"] ;
686 -> 687 ;
688 [label="mse = 0.0\nsamples = 1\nvalue = 5.0"] ;
687 -> 688 ;
689 [label="mse = 0.0\nsamples = 7\nvalue = 6.0"] ;
687 -> 689 ;
690 [label="chlorides <= 0.0\nmse = 0.5\nsamples = 6\nvalue = 5.3"] ;
686 -> 690 ;
691 [label="mse = 0.0\nsamples = 3\nvalue = 6.0"] ;
690 -> 691 ;
692 [label="sulphates <= 0.4\nmse = 0.2\nsamples = 3\nvalue = 4.8"] ;
690 -> 692 ;
693 [label="mse = 0.0\nsamples = 1\nvalue = 4.0"] ;
692 -> 693 ;
694 [label="mse = 0.0\nsamples = 2\nvalue = 5.0"] ;
692 -> 694 ;
695 [label="residual sugar <= 14.8\nmse = 0.1\nsamples = 8\nvalue = 5.1"] ;
685 -> 695 ;
696 [label="mse = 0.0\nsamples = 7\nvalue = 5.0"] ;
695 -> 696 ;
697 [label="mse = 0.0\nsamples = 1\nvalue = 6.0"] ;
695 -> 697 ;
698 [label="mse = 0.0\nsamples = 1\nvalue = 4.0"] ;
684 -> 698 ;
699 [label="volatile acidity <= 0.5\nmse = 0.3\nsamples = 321\nvalue = 5.2"] ;
503 -> 699 ;
700 [label="alcohol <= 10.4\nmse = 0.3\nsamples = 297\nvalue = 5.2"] ;
699 -> 700 ;
701 [label="density <= 1.0\nmse = 0.3\nsamples = 285\nvalue = 5.2"] ;
700 -> 701 ;
702 [label="volatile acidity <= 0.3\nmse = 0.3\nsamples = 227\nvalue = 5.3"] ;
701 -> 702 ;
703 [label="free sulfur dioxide <= 14.5\nmse = 0.3\nsamples = 131\nvalue = 5.2"] ;
702 -> 703 ;
704 [label="mse = 0.0\nsamples = 2\nvalue = 6.0"] ;
703 -> 704 ;
705 [label="free sulfur dioxide <= 38.0\nmse = 0.3\nsamples = 129\nvalue = 5.2"] ;
703 -> 705 ;
706 [label="total sulfur dioxide <= 188.5\nmse = 0.3\nsamples = 65\nvalue = 5.0"] ;
705 -> 706 ;
707 [label="chlorides <= 0.1\nmse = 0.2\nsamples = 58\nvalue = 5.1"] ;
706 -> 707 ;
708 [label="density <= 1.0\nmse = 0.2\nsamples = 55\nvalue = 5.0"] ;
707 -> 708 ;
709 [label="pH <= 3.2\nmse = 0.2\nsamples = 3\nvalue = 4.5"] ;
708 -> 709 ;
710 [label="mse = 0.0\nsamples = 2\nvalue = 5.0"] ;
709 -> 710 ;
711 [label="mse = 0.0\nsamples = 1\nvalue = 4.0"] ;
709 -> 711 ;
712 [label="total sulfur dioxide <= 91.0\nmse = 0.1\nsamples = 52\nvalue = 5.1"] ;
708 -> 712 ;
713 [label="mse = 0.0\nsamples = 2\nvalue = 6.0"] ;
712 -> 713 ;
714 [label="citric acid <= 0.5\nmse = 0.1\nsamples = 50\nvalue = 5.1"] ;
712 -> 714 ;
715 [label="pH <= 3.3\nmse = 0.1\nsamples = 49\nvalue = 5.1"] ;
714 -> 715 ;
716 [label="free sulfur dioxide <= 29.5\nmse = 0.1\nsamples = 46\nvalue = 5.1"] ;
715 -> 716 ;
717 [label="total sulfur dioxide <= 184.5\nmse = 0.0\nsamples = 27\nvalue = 5.0"] ;
716 -> 717 ;
718 [label="mse = 0.0\nsamples = 25\nvalue = 5.0"] ;
717 -> 718 ;
719 [label="sulphates <= 0.4\nmse = 0.2\nsamples = 2\nvalue = 4.5"] ;
717 -> 719 ;
720 [label="mse = 0.0\nsamples = 1\nvalue = 5.0"] ;
719 -> 720 ;
721 [label="mse = 0.0\nsamples = 1\nvalue = 4.0"] ;
719 -> 721 ;
722 [label="citric acid <= 0.3\nmse = 0.2\nsamples = 19\nvalue = 5.2"] ;
716 -> 722 ;
723 [label="sulphates <= 0.5\nmse = 0.1\nsamples = 17\nvalue = 5.1"] ;
722 -> 723 ;
724 [label="alcohol <= 8.8\nmse = 0.0\nsamples = 14\nvalue = 5.0"] ;
723 -> 724 ;
725 [label="sulphates <= 0.5\nmse = 0.2\nsamples = 3\nvalue = 5.3"] ;
724 -> 725 ;
726 [label="mse = 0.0\nsamples = 1\nvalue = 6.0"] ;
725 -> 726 ;
727 [label="mse = 0.0\nsamples = 2\nvalue = 5.0"] ;
725 -> 727 ;
728 [label="mse = 0.0\nsamples = 11\nvalue = 5.0"] ;
724 -> 728 ;
729 [label="pH <= 3.3\nmse = 0.2\nsamples = 3\nvalue = 5.5"] ;
723 -> 729 ;
730 [label="mse = 0.0\nsamples = 2\nvalue = 6.0"] ;
729 -> 730 ;
731 [label="mse = 0.0\nsamples = 1\nvalue = 5.0"] ;
729 -> 731 ;
732 [label="mse = 0.0\nsamples = 2\nvalue = 6.0"] ;
722 -> 732 ;
733 [label="chlorides <= 0.1\nmse = 0.2\nsamples = 3\nvalue = 5.7"] ;
715 -> 733 ;
734 [label="mse = 0.0\nsamples = 1\nvalue = 5.0"] ;
733 -> 734 ;
735 [label="mse = 0.0\nsamples = 2\nvalue = 6.0"] ;
733 -> 735 ;
736 [label="mse = 0.0\nsamples = 1\nvalue = 4.0"] ;
714 -> 736 ;
737 [label="mse = 0.0\nsamples = 3\nvalue = 6.0"] ;
707 -> 737 ;
738 [label="density <= 1.0\nmse = 0.2\nsamples = 7\nvalue = 4.4"] ;
706 -> 738 ;
739 [label="mse = 0.0\nsamples = 5\nvalue = 4.0"] ;
738 -> 739 ;
740 [label="mse = 0.0\nsamples = 2\nvalue = 5.0"] ;
738 -> 740 ;
741 [label="total sulfur dioxide <= 171.5\nmse = 0.2\nsamples = 64\nvalue = 5.3"] ;
705 -> 741 ;
742 [label="chlorides <= 0.1\nmse = 0.3\nsamples = 19\nvalue = 5.6"] ;
741 -> 742 ;
743 [label="fixed acidity <= 7.4\nmse = 0.2\nsamples = 14\nvalue = 5.8"] ;
742 -> 743 ;
744 [label="residual sugar <= 12.8\nmse = 0.1\nsamples = 10\nvalue = 6.0"] ;
743 -> 744 ;
745 [label="residual sugar <= 7.6\nmse = 0.1\nsamples = 9\nvalue = 5.9"] ;
744 -> 745 ;
746 [label="mse = 0.0\nsamples = 6\nvalue = 6.0"] ;
745 -> 746 ;
747 [label="density <= 1.0\nmse = 0.2\nsamples = 3\nvalue = 5.8"] ;
745 -> 747 ;
748 [label="mse = 0.0\nsamples = 1\nvalue = 5.0"] ;
747 -> 748 ;
749 [label="mse = 0.0\nsamples = 2\nvalue = 6.0"] ;
747 -> 749 ;
750 [label="mse = 0.0\nsamples = 1\nvalue = 7.0"] ;
744 -> 750 ;
751 [label="alcohol <= 10.1\nmse = 0.2\nsamples = 4\nvalue = 5.2"] ;
743 -> 751 ;
752 [label="mse = 0.0\nsamples = 3\nvalue = 5.0"] ;
751 -> 752 ;
753 [label="mse = 0.0\nsamples = 1\nvalue = 6.0"] ;
751 -> 753 ;
754 [label="total sulfur dioxide <= 113.0\nmse = 0.1\nsamples = 5\nvalue = 5.1"] ;
742 -> 754 ;
755 [label="mse = 0.0\nsamples = 1\nvalue = 6.0"] ;
754 -> 755 ;
756 [label="mse = 0.0\nsamples = 4\nvalue = 5.0"] ;
754 -> 756 ;
757 [label="citric acid <= 0.5\nmse = 0.2\nsamples = 45\nvalue = 5.2"] ;
741 -> 757 ;
758 [label="sulphates <= 0.4\nmse = 0.1\nsamples = 40\nvalue = 5.1"] ;
757 -> 758 ;
759 [label="pH <= 3.2\nmse = 0.2\nsamples = 4\nvalue = 5.8"] ;
758 -> 759 ;
760 [label="mse = 0.0\nsamples = 3\nvalue = 6.0"] ;
759 -> 760 ;
761 [label="mse = 0.0\nsamples = 1\nvalue = 5.0"] ;
759 -> 761 ;
762 [label="free sulfur dioxide <= 39.5\nmse = 0.1\nsamples = 36\nvalue = 5.1"] ;
758 -> 762 ;
763 [label="mse = 0.0\nsamples = 1\nvalue = 6.0"] ;
762 -> 763 ;
764 [label="fixed acidity <= 7.7\nmse = 0.1\nsamples = 35\nvalue = 5.1"] ;
762 -> 764 ;
765 [label="total sulfur dioxide <= 243.5\nmse = 0.0\nsamples = 32\nvalue = 5.1"] ;
764 -> 765 ;
766 [label="residual sugar <= 8.1\nmse = 0.0\nsamples = 31\nvalue = 5.0"] ;
765 -> 766 ;
767 [label="mse = 0.0\nsamples = 20\nvalue = 5.0"] ;
766 -> 767 ;
768 [label="residual sugar <= 8.2\nmse = 0.1\nsamples = 11\nvalue = 5.1"] ;
766 -> 768 ;
769 [label="mse = 0.0\nsamples = 2\nvalue = 6.0"] ;
768 -> 769 ;
770 [label="mse = 0.0\nsamples = 9\nvalue = 5.0"] ;
768 -> 770 ;
771 [label="mse = 0.0\nsamples = 1\nvalue = 6.0"] ;
765 -> 771 ;
772 [label="residual sugar <= 2.4\nmse = 0.2\nsamples = 3\nvalue = 5.4"] ;
764 -> 772 ;
773 [label="mse = 0.0\nsamples = 1\nvalue = 5.0"] ;
772 -> 773 ;
774 [label="mse = 0.0\nsamples = 2\nvalue = 6.0"] ;
772 -> 774 ;
775 [label="alcohol <= 9.1\nmse = 0.2\nsamples = 5\nvalue = 5.7"] ;
757 -> 775 ;
776 [label="mse = 0.0\nsamples = 1\nvalue = 5.0"] ;
775 -> 776 ;
777 [label="chlorides <= 0.1\nmse = 0.1\nsamples = 4\nvalue = 5.9"] ;
775 -> 777 ;
778 [label="mse = 0.0\nsamples = 3\nvalue = 6.0"] ;
777 -> 778 ;
779 [label="mse = 0.0\nsamples = 1\nvalue = 5.0"] ;
777 -> 779 ;
780 [label="free sulfur dioxide <= 27.0\nmse = 0.3\nsamples = 96\nvalue = 5.4"] ;
702 -> 780 ;
781 [label="fixed acidity <= 6.6\nmse = 0.3\nsamples = 33\nvalue = 5.6"] ;
780 -> 781 ;
782 [label="residual sugar <= 1.3\nmse = 0.3\nsamples = 18\nvalue = 5.9"] ;
781 -> 782 ;
783 [label="citric acid <= 0.2\nmse = 0.2\nsamples = 5\nvalue = 5.3"] ;
782 -> 783 ;
784 [label="mse = 0.0\nsamples = 3\nvalue = 5.0"] ;
783 -> 784 ;
785 [label="mse = 0.0\nsamples = 2\nvalue = 6.0"] ;
783 -> 785 ;
786 [label="fixed acidity <= 6.0\nmse = 0.2\nsamples = 13\nvalue = 6.0"] ;
782 -> 786 ;
787 [label="mse = 0.0\nsamples = 1\nvalue = 7.0"] ;
786 -> 787 ;
788 [label="citric acid <= 0.5\nmse = 0.1\nsamples = 12\nvalue = 5.9"] ;
786 -> 788 ;
789 [label="sulphates <= 0.6\nmse = 0.0\nsamples = 11\nvalue = 5.9"] ;
788 -> 789 ;
790 [label="mse = 0.0\nsamples = 10\nvalue = 6.0"] ;
789 -> 790 ;
791 [label="mse = 0.0\nsamples = 1\nvalue = 5.0"] ;
789 -> 791 ;
792 [label="mse = 0.0\nsamples = 1\nvalue = 5.0"] ;
788 -> 792 ;
793 [label="fixed acidity <= 7.2\nmse = 0.1\nsamples = 15\nvalue = 5.2"] ;
781 -> 793 ;
794 [label="mse = 0.0\nsamples = 11\nvalue = 5.0"] ;
793 -> 794 ;
795 [label="free sulfur dioxide <= 15.0\nmse = 0.2\nsamples = 4\nvalue = 5.7"] ;
793 -> 795 ;
796 [label="mse = 0.0\nsamples = 1\nvalue = 5.0"] ;
795 -> 796 ;
797 [label="mse = 0.0\nsamples = 3\nvalue = 6.0"] ;
795 -> 797 ;
798 [label="fixed acidity <= 7.1\nmse = 0.2\nsamples = 63\nvalue = 5.3"] ;
780 -> 798 ;
799 [label="residual sugar <= 11.3\nmse = 0.2\nsamples = 42\nvalue = 5.1"] ;
798 -> 799 ;
800 [label="free sulfur dioxide <= 62.5\nmse = 0.1\nsamples = 35\nvalue = 5.0"] ;
799 -> 800 ;
801 [label="fixed acidity <= 6.5\nmse = 0.0\nsamples = 32\nvalue = 5.0"] ;
800 -> 801 ;
802 [label="volatile acidity <= 0.4\nmse = 0.1\nsamples = 10\nvalue = 5.2"] ;
801 -> 802 ;
803 [label="mse = 0.0\nsamples = 1\nvalue = 6.0"] ;
802 -> 803 ;
804 [label="total sulfur dioxide <= 182.0\nmse = 0.1\nsamples = 9\nvalue = 5.1"] ;
802 -> 804 ;
805 [label="pH <= 3.3\nmse = 0.2\nsamples = 3\nvalue = 5.3"] ;
804 -> 805 ;
806 [label="mse = 0.0\nsamples = 1\nvalue = 6.0"] ;
805 -> 806 ;
807 [label="mse = 0.0\nsamples = 2\nvalue = 5.0"] ;
805 -> 807 ;
808 [label="mse = 0.0\nsamples = 6\nvalue = 5.0"] ;
804 -> 808 ;
809 [label="mse = 0.0\nsamples = 22\nvalue = 5.0"] ;
801 -> 809 ;
810 [label="volatile acidity <= 0.4\nmse = 0.2\nsamples = 3\nvalue = 4.7"] ;
800 -> 810 ;
811 [label="mse = 0.0\nsamples = 2\nvalue = 5.0"] ;
810 -> 811 ;
812 [label="mse = 0.0\nsamples = 1\nvalue = 4.0"] ;
810 -> 812 ;
813 [label="fixed acidity <= 6.8\nmse = 0.2\nsamples = 7\nvalue = 5.6"] ;
799 -> 813 ;
814 [label="mse = 0.0\nsamples = 4\nvalue = 6.0"] ;
813 -> 814 ;
815 [label="mse = 0.0\nsamples = 3\nvalue = 5.0"] ;
813 -> 815 ;
816 [label="density <= 1.0\nmse = 0.2\nsamples = 21\nvalue = 5.5"] ;
798 -> 816 ;
817 [label="volatile acidity <= 0.4\nmse = 0.2\nsamples = 15\nvalue = 5.7"] ;
816 -> 817 ;
818 [label="chlorides <= 0.1\nmse = 0.2\nsamples = 14\nvalue = 5.8"] ;
817 -> 818 ;
819 [label="sulphates <= 0.5\nmse = 0.2\nsamples = 5\nvalue = 5.4"] ;
818 -> 819 ;
820 [label="mse = 0.0\nsamples = 4\nvalue = 5.0"] ;
819 -> 820 ;
821 [label="mse = 0.0\nsamples = 1\nvalue = 6.0"] ;
819 -> 821 ;
822 [label="mse = 0.0\nsamples = 9\nvalue = 6.0"] ;
818 -> 822 ;
823 [label="mse = 0.0\nsamples = 1\nvalue = 5.0"] ;
817 -> 823 ;
824 [label="mse = 0.0\nsamples = 6\nvalue = 5.0"] ;
816 -> 824 ;
825 [label="fixed acidity <= 8.5\nmse = 0.2\nsamples = 58\nvalue = 5.0"] ;
701 -> 825 ;
826 [label="chlorides <= 0.1\nmse = 0.2\nsamples = 56\nvalue = 5.0"] ;
825 -> 826 ;
827 [label="pH <= 3.3\nmse = 0.1\nsamples = 37\nvalue = 5.1"] ;
826 -> 827 ;
828 [label="residual sugar <= 27.6\nmse = 0.1\nsamples = 33\nvalue = 5.1"] ;
827 -> 828 ;
829 [label="free sulfur dioxide <= 24.0\nmse = 0.1\nsamples = 32\nvalue = 5.0"] ;
828 -> 829 ;
830 [label="citric acid <= 0.3\nmse = 0.2\nsamples = 2\nvalue = 4.5"] ;
829 -> 830 ;
831 [label="mse = 0.0\nsamples = 1\nvalue = 4.0"] ;
830 -> 831 ;
832 [label="mse = 0.0\nsamples = 1\nvalue = 5.0"] ;
830 -> 832 ;
833 [label="total sulfur dioxide <= 187.0\nmse = 0.1\nsamples = 30\nvalue = 5.1"] ;
829 -> 833 ;
834 [label="mse = 0.0\nsamples = 15\nvalue = 5.0"] ;
833 -> 834 ;
835 [label="total sulfur dioxide <= 194.5\nmse = 0.1\nsamples = 15\nvalue = 5.1"] ;
833 -> 835 ;
836 [label="mse = 0.0\nsamples = 2\nvalue = 6.0"] ;
835 -> 836 ;
837 [label="citric acid <= 0.2\nmse = 0.0\nsamples = 13\nvalue = 5.0"] ;
835 -> 837 ;
838 [label="mse = 0.0\nsamples = 1\nvalue = 6.0"] ;
837 -> 838 ;
839 [label="mse = 0.0\nsamples = 12\nvalue = 5.0"] ;
837 -> 839 ;
840 [label="mse = 0.0\nsamples = 1\nvalue = 6.0"] ;
828 -> 840 ;
841 [label="free sulfur dioxide <= 32.0\nmse = 0.2\nsamples = 4\nvalue = 5.5"] ;
827 -> 841 ;
842 [label="mse = 0.0\nsamples = 2\nvalue = 5.0"] ;
841 -> 842 ;
843 [label="mse = 0.0\nsamples = 2\nvalue = 6.0"] ;
841 -> 843 ;
844 [label="residual sugar <= 15.5\nmse = 0.2\nsamples = 19\nvalue = 4.8"] ;
826 -> 844 ;
845 [label="residual sugar <= 13.3\nmse = 0.2\nsamples = 13\nvalue = 4.6"] ;
844 -> 845 ;
846 [label="residual sugar <= 7.5\nmse = 0.2\nsamples = 8\nvalue = 4.8"] ;
845 -> 846 ;
847 [label="residual sugar <= 6.8\nmse = 0.2\nsamples = 2\nvalue = 4.2"] ;
846 -> 847 ;
848 [label="mse = 0.0\nsamples = 1\nvalue = 5.0"] ;
847 -> 848 ;
849 [label="mse = 0.0\nsamples = 1\nvalue = 4.0"] ;
847 -> 849 ;
850 [label="mse = 0.0\nsamples = 6\nvalue = 5.0"] ;
846 -> 850 ;
851 [label="total sulfur dioxide <= 196.0\nmse = 0.1\nsamples = 5\nvalue = 4.2"] ;
845 -> 851 ;
852 [label="mse = 0.0\nsamples = 4\nvalue = 4.0"] ;
851 -> 852 ;
853 [label="mse = 0.0\nsamples = 1\nvalue = 5.0"] ;
851 -> 853 ;
854 [label="total sulfur dioxide <= 159.5\nmse = 0.1\nsamples = 6\nvalue = 5.1"] ;
844 -> 854 ;
855 [label="mse = 0.0\nsamples = 1\nvalue = 6.0"] ;
854 -> 855 ;
856 [label="mse = 0.0\nsamples = 5\nvalue = 5.0"] ;
854 -> 856 ;
857 [label="mse = 0.0\nsamples = 2\nvalue = 6.0"] ;
825 -> 857 ;
858 [label="free sulfur dioxide <= 22.5\nmse = 0.4\nsamples = 12\nvalue = 5.9"] ;
700 -> 858 ;
859 [label="volatile acidity <= 0.3\nmse = 0.1\nsamples = 4\nvalue = 5.1"] ;
858 -> 859 ;
860 [label="mse = 0.0\nsamples = 1\nvalue = 6.0"] ;
859 -> 860 ;
861 [label="mse = 0.0\nsamples = 3\nvalue = 5.0"] ;
859 -> 861 ;
862 [label="pH <= 3.5\nmse = 0.2\nsamples = 8\nvalue = 6.2"] ;
858 -> 862 ;
863 [label="mse = 0.0\nsamples = 6\nvalue = 6.0"] ;
862 -> 863 ;
864 [label="mse = 0.0\nsamples = 2\nvalue = 7.0"] ;
862 -> 864 ;
865 [label="alcohol <= 8.6\nmse = 0.3\nsamples = 24\nvalue = 4.6"] ;
699 -> 865 ;
866 [label="mse = 0.0\nsamples = 1\nvalue = 3.0"] ;
865 -> 866 ;
867 [label="sulphates <= 0.6\nmse = 0.3\nsamples = 23\nvalue = 4.7"] ;
865 -> 867 ;
868 [label="citric acid <= 0.2\nmse = 0.2\nsamples = 20\nvalue = 4.8"] ;
867 -> 868 ;
869 [label="sulphates <= 0.5\nmse = 0.2\nsamples = 9\nvalue = 4.4"] ;
868 -> 869 ;
870 [label="mse = 0.0\nsamples = 5\nvalue = 4.0"] ;
869 -> 870 ;
871 [label="free sulfur dioxide <= 17.5\nmse = 0.1\nsamples = 4\nvalue = 4.8"] ;
869 -> 871 ;
872 [label="mse = 0.0\nsamples = 1\nvalue = 4.0"] ;
871 -> 872 ;
873 [label="mse = 0.0\nsamples = 3\nvalue = 5.0"] ;
871 -> 873 ;
874 [label="sulphates <= 0.6\nmse = 0.0\nsamples = 11\nvalue = 5.0"] ;
868 -> 874 ;
875 [label="mse = 0.0\nsamples = 10\nvalue = 5.0"] ;
874 -> 875 ;
876 [label="mse = 0.0\nsamples = 1\nvalue = 6.0"] ;
874 -> 876 ;
877 [label="mse = 0.0\nsamples = 3\nvalue = 4.0"] ;
867 -> 877 ;
878 [label="free sulfur dioxide <= 9.5\nmse = 0.8\nsamples = 1022\nvalue = 6.3"] ;
0 -> 878 [labeldistance=2.5, labelangle=-45, headlabel="False"] ;
879 [label="residual sugar <= 1.1\nmse = 1.0\nsamples = 41\nvalue = 5.1"] ;
878 -> 879 ;
880 [label="free sulfur dioxide <= 4.5\nmse = 0.2\nsamples = 10\nvalue = 4.3"] ;
879 -> 880 ;
881 [label="mse = 0.0\nsamples = 3\nvalue = 4.0"] ;
880 -> 881 ;
882 [label="residual sugar <= 0.9\nmse = 0.2\nsamples = 7\nvalue = 4.8"] ;
880 -> 882 ;
883 [label="mse = 0.0\nsamples = 2\nvalue = 4.0"] ;
882 -> 883 ;
884 [label="mse = 0.0\nsamples = 5\nvalue = 5.0"] ;
882 -> 884 ;
885 [label="residual sugar <= 6.9\nmse = 1.0\nsamples = 31\nvalue = 5.4"] ;
879 -> 885 ;
886 [label="alcohol <= 12.1\nmse = 0.8\nsamples = 26\nvalue = 5.2"] ;
885 -> 886 ;
887 [label="pH <= 3.1\nmse = 0.6\nsamples = 16\nvalue = 4.9"] ;
886 -> 887 ;
888 [label="residual sugar <= 4.0\nmse = 0.4\nsamples = 7\nvalue = 4.3"] ;
887 -> 888 ;
889 [label="citric acid <= 0.5\nmse = 0.1\nsamples = 6\nvalue = 4.2"] ;
888 -> 889 ;
890 [label="mse = 0.0\nsamples = 5\nvalue = 4.0"] ;
889 -> 890 ;
891 [label="mse = 0.0\nsamples = 1\nvalue = 5.0"] ;
889 -> 891 ;
892 [label="mse = 0.0\nsamples = 1\nvalue = 6.0"] ;
888 -> 892 ;
893 [label="sulphates <= 0.6\nmse = 0.4\nsamples = 9\nvalue = 5.3"] ;
887 -> 893 ;
894 [label="mse = 0.0\nsamples = 5\nvalue = 5.0"] ;
893 -> 894 ;
895 [label="residual sugar <= 1.4\nmse = 0.4\nsamples = 4\nvalue = 6.0"] ;
893 -> 895 ;
896 [label="mse = 0.0\nsamples = 1\nvalue = 7.0"] ;
895 -> 896 ;
897 [label="free sulfur dioxide <= 8.0\nmse = 0.2\nsamples = 3\nvalue = 5.8"] ;
895 -> 897 ;
898 [label="mse = 0.0\nsamples = 2\nvalue = 6.0"] ;
897 -> 898 ;
899 [label="mse = 0.0\nsamples = 1\nvalue = 5.0"] ;
897 -> 899 ;
900 [label="total sulfur dioxide <= 55.5\nmse = 0.6\nsamples = 10\nvalue = 5.9"] ;
886 -> 900 ;
901 [label="pH <= 3.1\nmse = 0.2\nsamples = 2\nvalue = 4.7"] ;
900 -> 901 ;
902 [label="mse = 0.0\nsamples = 1\nvalue = 4.0"] ;
901 -> 902 ;
903 [label="mse = 0.0\nsamples = 1\nvalue = 5.0"] ;
901 -> 903 ;
904 [label="sulphates <= 0.8\nmse = 0.1\nsamples = 8\nvalue = 6.2"] ;
900 -> 904 ;
905 [label="mse = 0.0\nsamples = 7\nvalue = 6.0"] ;
904 -> 905 ;
906 [label="mse = 0.0\nsamples = 1\nvalue = 7.0"] ;
904 -> 906 ;
907 [label="residual sugar <= 9.9\nmse = 0.5\nsamples = 5\nvalue = 6.4"] ;
885 -> 907 ;
908 [label="total sulfur dioxide <= 99.0\nmse = 0.2\nsamples = 2\nvalue = 7.5"] ;
907 -> 908 ;
909 [label="mse = 0.0\nsamples = 1\nvalue = 8.0"] ;
908 -> 909 ;
910 [label="mse = 0.0\nsamples = 1\nvalue = 7.0"] ;
908 -> 910 ;
911 [label="mse = 0.0\nsamples = 3\nvalue = 6.0"] ;
907 -> 911 ;
912 [label="alcohol <= 11.5\nmse = 0.7\nsamples = 981\nvalue = 6.4"] ;
878 -> 912 ;
913 [label="pH <= 3.2\nmse = 0.7\nsamples = 429\nvalue = 6.1"] ;
912 -> 913 ;
914 [label="volatile acidity <= 0.3\nmse = 0.6\nsamples = 280\nvalue = 6.0"] ;
913 -> 914 ;
915 [label="free sulfur dioxide <= 13.5\nmse = 0.4\nsamples = 172\nvalue = 6.2"] ;
914 -> 915 ;
916 [label="alcohol <= 10.9\nmse = 0.2\nsamples = 8\nvalue = 5.4"] ;
915 -> 916 ;
917 [label="mse = 0.0\nsamples = 4\nvalue = 6.0"] ;
916 -> 917 ;
918 [label="mse = 0.0\nsamples = 4\nvalue = 5.0"] ;
916 -> 918 ;
919 [label="sulphates <= 0.5\nmse = 0.4\nsamples = 164\nvalue = 6.2"] ;
915 -> 919 ;
920 [label="volatile acidity <= 0.2\nmse = 0.3\nsamples = 119\nvalue = 6.1"] ;
919 -> 920 ;
921 [label="density <= 1.0\nmse = 0.3\nsamples = 43\nvalue = 6.3"] ;
920 -> 921 ;
922 [label="chlorides <= 0.0\nmse = 0.2\nsamples = 32\nvalue = 6.2"] ;
921 -> 922 ;
923 [label="alcohol <= 11.3\nmse = 0.2\nsamples = 27\nvalue = 6.1"] ;
922 -> 923 ;
924 [label="residual sugar <= 2.7\nmse = 0.1\nsamples = 23\nvalue = 6.1"] ;
923 -> 924 ;
925 [label="chlorides <= 0.0\nmse = 0.2\nsamples = 12\nvalue = 6.3"] ;
924 -> 925 ;
926 [label="mse = 0.0\nsamples = 2\nvalue = 7.0"] ;
925 -> 926 ;
927 [label="volatile acidity <= 0.1\nmse = 0.1\nsamples = 10\nvalue = 6.2"] ;
925 -> 927 ;
928 [label="mse = 0.0\nsamples = 2\nvalue = 7.0"] ;
927 -> 928 ;
929 [label="density <= 1.0\nmse = 0.1\nsamples = 8\nvalue = 6.1"] ;
927 -> 929 ;
930 [label="mse = 0.0\nsamples = 7\nvalue = 6.0"] ;
929 -> 930 ;
931 [label="mse = 0.0\nsamples = 1\nvalue = 7.0"] ;
929 -> 931 ;
932 [label="mse = 0.0\nsamples = 11\nvalue = 6.0"] ;
924 -> 932 ;
933 [label="volatile acidity <= 0.2\nmse = 0.2\nsamples = 4\nvalue = 5.6"] ;
923 -> 933 ;
934 [label="mse = 0.0\nsamples = 2\nvalue = 6.0"] ;
933 -> 934 ;
935 [label="mse = 0.0\nsamples = 2\nvalue = 5.0"] ;
933 -> 935 ;
936 [label="fixed acidity <= 6.9\nmse = 0.2\nsamples = 5\nvalue = 6.7"] ;
922 -> 936 ;
937 [label="mse = 0.0\nsamples = 3\nvalue = 7.0"] ;
936 -> 937 ;
938 [label="mse = 0.0\nsamples = 2\nvalue = 6.0"] ;
936 -> 938 ;
939 [label="pH <= 3.2\nmse = 0.2\nsamples = 11\nvalue = 6.8"] ;
921 -> 939 ;
940 [label="mse = 0.0\nsamples = 7\nvalue = 7.0"] ;
939 -> 940 ;
941 [label="sulphates <= 0.5\nmse = 0.1\nsamples = 4\nvalue = 6.2"] ;
939 -> 941 ;
942 [label="mse = 0.0\nsamples = 3\nvalue = 6.0"] ;
941 -> 942 ;
943 [label="mse = 0.0\nsamples = 1\nvalue = 7.0"] ;
941 -> 943 ;
944 [label="alcohol <= 11.2\nmse = 0.3\nsamples = 76\nvalue = 6.0"] ;
920 -> 944 ;
945 [label="pH <= 3.0\nmse = 0.3\nsamples = 62\nvalue = 5.8"] ;
944 -> 945 ;
946 [label="sulphates <= 0.3\nmse = 0.2\nsamples = 11\nvalue = 6.4"] ;
945 -> 946 ;
947 [label="mse = 0.0\nsamples = 3\nvalue = 7.0"] ;
946 -> 947 ;
948 [label="free sulfur dioxide <= 14.5\nmse = 0.1\nsamples = 8\nvalue = 6.2"] ;
946 -> 948 ;
949 [label="mse = 0.0\nsamples = 1\nvalue = 7.0"] ;
948 -> 949 ;
950 [label="citric acid <= 0.4\nmse = 0.1\nsamples = 7\nvalue = 6.1"] ;
948 -> 950 ;
951 [label="mse = 0.0\nsamples = 6\nvalue = 6.0"] ;
950 -> 951 ;
952 [label="mse = 0.0\nsamples = 1\nvalue = 7.0"] ;
950 -> 952 ;
953 [label="total sulfur dioxide <= 115.5\nmse = 0.2\nsamples = 51\nvalue = 5.7"] ;
945 -> 953 ;
954 [label="chlorides <= 0.1\nmse = 0.1\nsamples = 26\nvalue = 5.9"] ;
953 -> 954 ;
955 [label="residual sugar <= 1.7\nmse = 0.0\nsamples = 21\nvalue = 6.0"] ;
954 -> 955 ;
956 [label="fixed acidity <= 7.0\nmse = 0.1\nsamples = 4\nvalue = 6.1"] ;
955 -> 956 ;
957 [label="mse = 0.0\nsamples = 3\nvalue = 6.0"] ;
956 -> 957 ;
958 [label="mse = 0.0\nsamples = 1\nvalue = 7.0"] ;
956 -> 958 ;
959 [label="mse = 0.0\nsamples = 17\nvalue = 6.0"] ;
955 -> 959 ;
960 [label="residual sugar <= 3.8\nmse = 0.2\nsamples = 5\nvalue = 5.5"] ;
954 -> 960 ;
961 [label="mse = 0.0\nsamples = 3\nvalue = 6.0"] ;
960 -> 961 ;
962 [label="mse = 0.0\nsamples = 2\nvalue = 5.0"] ;
960 -> 962 ;
963 [label="volatile acidity <= 0.2\nmse = 0.3\nsamples = 25\nvalue = 5.5"] ;
953 -> 963 ;
964 [label="density <= 1.0\nmse = 0.2\nsamples = 14\nvalue = 5.3"] ;
963 -> 964 ;
965 [label="mse = 0.0\nsamples = 5\nvalue = 5.0"] ;
964 -> 965 ;
966 [label="pH <= 3.2\nmse = 0.2\nsamples = 9\nvalue = 5.5"] ;
964 -> 966 ;
967 [label="mse = 0.0\nsamples = 4\nvalue = 6.0"] ;
966 -> 967 ;
968 [label="citric acid <= 0.4\nmse = 0.1\nsamples = 5\nvalue = 5.1"] ;
966 -> 968 ;
969 [label="mse = 0.0\nsamples = 4\nvalue = 5.0"] ;
968 -> 969 ;
970 [label="mse = 0.0\nsamples = 1\nvalue = 6.0"] ;
968 -> 970 ;
971 [label="chlorides <= 0.0\nmse = 0.3\nsamples = 11\nvalue = 5.8"] ;
963 -> 971 ;
972 [label="mse = 0.0\nsamples = 1\nvalue = 5.0"] ;
971 -> 972 ;
973 [label="sulphates <= 0.3\nmse = 0.1\nsamples = 10\nvalue = 6.0"] ;
971 -> 973 ;
974 [label="mse = 0.0\nsamples = 1\nvalue = 5.0"] ;
973 -> 974 ;
975 [label="volatile acidity <= 0.2\nmse = 0.1\nsamples = 9\nvalue = 6.1"] ;
973 -> 975 ;
976 [label="chlorides <= 0.0\nmse = 0.2\nsamples = 3\nvalue = 6.3"] ;
975 -> 976 ;
977 [label="mse = 0.0\nsamples = 2\nvalue = 6.0"] ;
976 -> 977 ;
978 [label="mse = 0.0\nsamples = 1\nvalue = 7.0"] ;
976 -> 978 ;
979 [label="mse = 0.0\nsamples = 6\nvalue = 6.0"] ;
975 -> 979 ;
980 [label="pH <= 3.1\nmse = 0.2\nsamples = 14\nvalue = 6.4"] ;
944 -> 980 ;
981 [label="sulphates <= 0.3\nmse = 0.1\nsamples = 7\nvalue = 6.1"] ;
980 -> 981 ;
982 [label="mse = 0.0\nsamples = 1\nvalue = 7.0"] ;
981 -> 982 ;
983 [label="mse = 0.0\nsamples = 6\nvalue = 6.0"] ;
981 -> 983 ;
984 [label="fixed acidity <= 6.0\nmse = 0.2\nsamples = 7\nvalue = 6.8"] ;
980 -> 984 ;
985 [label="mse = 0.0\nsamples = 1\nvalue = 6.0"] ;
984 -> 985 ;
986 [label="mse = 0.0\nsamples = 6\nvalue = 7.0"] ;
984 -> 986 ;
987 [label="free sulfur dioxide <= 20.5\nmse = 0.4\nsamples = 45\nvalue = 6.5"] ;
919 -> 987 ;
988 [label="sulphates <= 0.6\nmse = 0.1\nsamples = 7\nvalue = 7.2"] ;
987 -> 988 ;
989 [label="mse = 0.0\nsamples = 2\nvalue = 8.0"] ;
988 -> 989 ;
990 [label="mse = 0.0\nsamples = 5\nvalue = 7.0"] ;
988 -> 990 ;
991 [label="citric acid <= 0.5\nmse = 0.3\nsamples = 38\nvalue = 6.3"] ;
987 -> 991 ;
992 [label="free sulfur dioxide <= 61.5\nmse = 0.2\nsamples = 37\nvalue = 6.4"] ;
991 -> 992 ;
993 [label="citric acid <= 0.3\nmse = 0.2\nsamples = 33\nvalue = 6.3"] ;
992 -> 993 ;
994 [label="mse = 0.0\nsamples = 2\nvalue = 7.0"] ;
993 -> 994 ;
995 [label="fixed acidity <= 7.2\nmse = 0.2\nsamples = 31\nvalue = 6.2"] ;
993 -> 995 ;
996 [label="volatile acidity <= 0.1\nmse = 0.1\nsamples = 24\nvalue = 6.1"] ;
995 -> 996 ;
997 [label="mse = 0.0\nsamples = 2\nvalue = 7.0"] ;
996 -> 997 ;
998 [label="density <= 1.0\nmse = 0.1\nsamples = 22\nvalue = 6.1"] ;
996 -> 998 ;
999 [label="chlorides <= 0.0\nmse = 0.2\nsamples = 3\nvalue = 6.5"] ;
998 -> 999 ;
1000 [label="mse = 0.0\nsamples = 2\nvalue = 6.0"] ;
999 -> 1000 ;
1001 [label="mse = 0.0\nsamples = 1\nvalue = 7.0"] ;
999 -> 1001 ;
1002 [label="mse = 0.0\nsamples = 19\nvalue = 6.0"] ;
998 -> 1002 ;
1003 [label="pH <= 3.1\nmse = 0.2\nsamples = 7\nvalue = 6.7"] ;
995 -> 1003 ;
1004 [label="mse = 0.0\nsamples = 4\nvalue = 7.0"] ;
1003 -> 1004 ;
1005 [label="mse = 0.0\nsamples = 3\nvalue = 6.0"] ;
1003 -> 1005 ;
1006 [label="mse = 0.0\nsamples = 4\nvalue = 7.0"] ;
992 -> 1006 ;
1007 [label="mse = 0.0\nsamples = 1\nvalue = 5.0"] ;
991 -> 1007 ;
1008 [label="density <= 1.0\nmse = 0.7\nsamples = 108\nvalue = 5.6"] ;
914 -> 1008 ;
1009 [label="total sulfur dioxide <= 104.5\nmse = 0.6\nsamples = 107\nvalue = 5.7"] ;
1008 -> 1009 ;
1010 [label="chlorides <= 0.0\nmse = 0.7\nsamples = 33\nvalue = 5.3"] ;
1009 -> 1010 ;
1011 [label="density <= 1.0\nmse = 0.4\nsamples = 19\nvalue = 5.7"] ;
1010 -> 1011 ;
1012 [label="pH <= 2.9\nmse = 0.3\nsamples = 18\nvalue = 5.8"] ;
1011 -> 1012 ;
1013 [label="mse = 0.0\nsamples = 2\nvalue = 5.0"] ;
1012 -> 1013 ;
1014 [label="citric acid <= 0.4\nmse = 0.2\nsamples = 16\nvalue = 5.9"] ;
1012 -> 1014 ;
1015 [label="fixed acidity <= 7.9\nmse = 0.1\nsamples = 15\nvalue = 5.8"] ;
1014 -> 1015 ;
1016 [label="mse = 0.0\nsamples = 11\nvalue = 6.0"] ;
1015 -> 1016 ;
1017 [label="total sulfur dioxide <= 94.0\nmse = 0.2\nsamples = 4\nvalue = 5.2"] ;
1015 -> 1017 ;
1018 [label="mse = 0.0\nsamples = 3\nvalue = 5.0"] ;
1017 -> 1018 ;
1019 [label="mse = 0.0\nsamples = 1\nvalue = 6.0"] ;
1017 -> 1019 ;
1020 [label="mse = 0.0\nsamples = 1\nvalue = 7.0"] ;
1014 -> 1020 ;
1021 [label="mse = 0.0\nsamples = 1\nvalue = 4.0"] ;
1011 -> 1021 ;
1022 [label="citric acid <= 0.2\nmse = 0.6\nsamples = 14\nvalue = 4.8"] ;
1010 -> 1022 ;
1023 [label="mse = 0.0\nsamples = 4\nvalue = 4.0"] ;
1022 -> 1023 ;
1024 [label="sulphates <= 0.4\nmse = 0.5\nsamples = 10\nvalue = 5.1"] ;
1022 -> 1024 ;
1025 [label="volatile acidity <= 0.4\nmse = 0.2\nsamples = 3\nvalue = 6.3"] ;
1024 -> 1025 ;
1026 [label="mse = 0.0\nsamples = 1\nvalue = 7.0"] ;
1025 -> 1026 ;
1027 [label="mse = 0.0\nsamples = 2\nvalue = 6.0"] ;
1025 -> 1027 ;
1028 [label="alcohol <= 10.8\nmse = 0.1\nsamples = 7\nvalue = 4.9"] ;
1024 -> 1028 ;
1029 [label="mse = 0.0\nsamples = 1\nvalue = 4.0"] ;
1028 -> 1029 ;
1030 [label="mse = 0.0\nsamples = 6\nvalue = 5.0"] ;
1028 -> 1030 ;
1031 [label="residual sugar <= 3.1\nmse = 0.5\nsamples = 74\nvalue = 5.8"] ;
1009 -> 1031 ;
1032 [label="density <= 1.0\nmse = 0.5\nsamples = 26\nvalue = 5.4"] ;
1031 -> 1032 ;
1033 [label="citric acid <= 0.3\nmse = 0.4\nsamples = 19\nvalue = 5.7"] ;
1032 -> 1033 ;
1034 [label="mse = 0.0\nsamples = 4\nvalue = 5.0"] ;
1033 -> 1034 ;
1035 [label="chlorides <= 0.0\nmse = 0.3\nsamples = 15\nvalue = 5.8"] ;
1033 -> 1035 ;
1036 [label="citric acid <= 0.4\nmse = 0.2\nsamples = 7\nvalue = 6.2"] ;
1035 -> 1036 ;
1037 [label="mse = 0.0\nsamples = 4\nvalue = 6.0"] ;
1036 -> 1037 ;
1038 [label="total sulfur dioxide <= 139.0\nmse = 0.2\nsamples = 3\nvalue = 6.7"] ;
1036 -> 1038 ;
1039 [label="mse = 0.0\nsamples = 2\nvalue = 7.0"] ;
1038 -> 1039 ;
1040 [label="mse = 0.0\nsamples = 1\nvalue = 6.0"] ;
1038 -> 1040 ;
1041 [label="citric acid <= 0.3\nmse = 0.2\nsamples = 8\nvalue = 5.6"] ;
1035 -> 1041 ;
1042 [label="mse = 0.0\nsamples = 3\nvalue = 6.0"] ;
1041 -> 1042 ;
1043 [label="mse = 0.0\nsamples = 5\nvalue = 5.0"] ;
1041 -> 1043 ;
1044 [label="residual sugar <= 1.4\nmse = 0.4\nsamples = 7\nvalue = 4.8"] ;
1032 -> 1044 ;
1045 [label="mse = 0.0\nsamples = 2\nvalue = 4.0"] ;
1044 -> 1045 ;
1046 [label="pH <= 3.2\nmse = 0.1\nsamples = 5\nvalue = 5.1"] ;
1044 -> 1046 ;
1047 [label="mse = 0.0\nsamples = 4\nvalue = 5.0"] ;
1046 -> 1047 ;
1048 [label="mse = 0.0\nsamples = 1\nvalue = 6.0"] ;
1046 -> 1048 ;
1049 [label="citric acid <= 0.2\nmse = 0.3\nsamples = 48\nvalue = 6.0"] ;
1031 -> 1049 ;
1050 [label="chlorides <= 0.0\nmse = 0.2\nsamples = 8\nvalue = 5.4"] ;
1049 -> 1050 ;
1051 [label="mse = 0.0\nsamples = 3\nvalue = 5.0"] ;
1050 -> 1051 ;
1052 [label="sulphates <= 0.5\nmse = 0.1\nsamples = 5\nvalue = 5.8"] ;
1050 -> 1052 ;
1053 [label="mse = 0.0\nsamples = 4\nvalue = 6.0"] ;
1052 -> 1053 ;
1054 [label="mse = 0.0\nsamples = 1\nvalue = 5.0"] ;
1052 -> 1054 ;
1055 [label="total sulfur dioxide <= 182.5\nmse = 0.3\nsamples = 40\nvalue = 6.1"] ;
1049 -> 1055 ;
1056 [label="free sulfur dioxide <= 53.0\nmse = 0.2\nsamples = 36\nvalue = 6.2"] ;
1055 -> 1056 ;
1057 [label="fixed acidity <= 8.0\nmse = 0.2\nsamples = 35\nvalue = 6.1"] ;
1056 -> 1057 ;
1058 [label="volatile acidity <= 0.4\nmse = 0.2\nsamples = 30\nvalue = 6.1"] ;
1057 -> 1058 ;
1059 [label="fixed acidity <= 7.2\nmse = 0.1\nsamples = 21\nvalue = 5.9"] ;
1058 -> 1059 ;
1060 [label="mse = 0.0\nsamples = 15\nvalue = 6.0"] ;
1059 -> 1060 ;
1061 [label="volatile acidity <= 0.3\nmse = 0.2\nsamples = 6\nvalue = 5.6"] ;
1059 -> 1061 ;
1062 [label="alcohol <= 10.9\nmse = 0.1\nsamples = 4\nvalue = 5.8"] ;
1061 -> 1062 ;
1063 [label="mse = 0.0\nsamples = 1\nvalue = 5.0"] ;
1062 -> 1063 ;
1064 [label="mse = 0.0\nsamples = 3\nvalue = 6.0"] ;
1062 -> 1064 ;
1065 [label="mse = 0.0\nsamples = 2\nvalue = 5.0"] ;
1061 -> 1065 ;
1066 [label="pH <= 3.1\nmse = 0.2\nsamples = 9\nvalue = 6.4"] ;
1058 -> 1066 ;
1067 [label="mse = 0.0\nsamples = 4\nvalue = 6.0"] ;
1066 -> 1067 ;
1068 [label="sulphates <= 0.4\nmse = 0.2\nsamples = 5\nvalue = 6.8"] ;
1066 -> 1068 ;
1069 [label="mse = 0.0\nsamples = 4\nvalue = 7.0"] ;
1068 -> 1069 ;
1070 [label="mse = 0.0\nsamples = 1\nvalue = 6.0"] ;
1068 -> 1070 ;
1071 [label="residual sugar <= 11.5\nmse = 0.2\nsamples = 5\nvalue = 6.7"] ;
1057 -> 1071 ;
1072 [label="mse = 0.0\nsamples = 3\nvalue = 7.0"] ;
1071 -> 1072 ;
1073 [label="mse = 0.0\nsamples = 2\nvalue = 6.0"] ;
1071 -> 1073 ;
1074 [label="mse = 0.0\nsamples = 1\nvalue = 7.0"] ;
1056 -> 1074 ;
1075 [label="total sulfur dioxide <= 192.5\nmse = 0.2\nsamples = 4\nvalue = 5.3"] ;
1055 -> 1075 ;
1076 [label="mse = 0.0\nsamples = 2\nvalue = 5.0"] ;
1075 -> 1076 ;
1077 [label="mse = 0.0\nsamples = 2\nvalue = 6.0"] ;
1075 -> 1077 ;
1078 [label="mse = 0.0\nsamples = 1\nvalue = 3.0"] ;
1008 -> 1078 ;
1079 [label="residual sugar <= 2.0\nmse = 0.7\nsamples = 149\nvalue = 6.4"] ;
913 -> 1079 ;
1080 [label="total sulfur dioxide <= 144.5\nmse = 0.7\nsamples = 85\nvalue = 6.2"] ;
1079 -> 1080 ;
1081 [label="residual sugar <= 0.9\nmse = 0.7\nsamples = 68\nvalue = 6.4"] ;
1080 -> 1081 ;
1082 [label="free sulfur dioxide <= 28.0\nmse = 1.0\nsamples = 4\nvalue = 4.8"] ;
1081 -> 1082 ;
1083 [label="mse = 0.0\nsamples = 1\nvalue = 3.0"] ;
1082 -> 1083 ;
1084 [label="pH <= 3.5\nmse = 0.2\nsamples = 3\nvalue = 5.2"] ;
1082 -> 1084 ;
1085 [label="mse = 0.0\nsamples = 1\nvalue = 6.0"] ;
1084 -> 1085 ;
1086 [label="mse = 0.0\nsamples = 2\nvalue = 5.0"] ;
1084 -> 1086 ;
1087 [label="alcohol <= 11.2\nmse = 0.6\nsamples = 64\nvalue = 6.5"] ;
1081 -> 1087 ;
1088 [label="total sulfur dioxide <= 123.5\nmse = 0.5\nsamples = 35\nvalue = 6.7"] ;
1087 -> 1088 ;
1089 [label="alcohol <= 10.9\nmse = 0.5\nsamples = 29\nvalue = 6.5"] ;
1088 -> 1089 ;
1090 [label="total sulfur dioxide <= 77.5\nmse = 0.3\nsamples = 15\nvalue = 6.2"] ;
1089 -> 1090 ;
1091 [label="mse = 0.0\nsamples = 3\nvalue = 7.0"] ;
1090 -> 1091 ;
1092 [label="density <= 1.0\nmse = 0.1\nsamples = 12\nvalue = 6.0"] ;
1090 -> 1092 ;
1093 [label="citric acid <= 0.4\nmse = 0.1\nsamples = 11\nvalue = 5.9"] ;
1092 -> 1093 ;
1094 [label="mse = 0.0\nsamples = 10\nvalue = 6.0"] ;
1093 -> 1094 ;
1095 [label="mse = 0.0\nsamples = 1\nvalue = 5.0"] ;
1093 -> 1095 ;
1096 [label="mse = 0.0\nsamples = 1\nvalue = 7.0"] ;
1092 -> 1096 ;
1097 [label="chlorides <= 0.0\nmse = 0.5\nsamples = 14\nvalue = 6.9"] ;
1089 -> 1097 ;
1098 [label="sulphates <= 0.6\nmse = 0.2\nsamples = 9\nvalue = 7.3"] ;
1097 -> 1098 ;
1099 [label="fixed acidity <= 5.6\nmse = 0.2\nsamples = 8\nvalue = 7.2"] ;
1098 -> 1099 ;
1100 [label="mse = 0.0\nsamples = 1\nvalue = 8.0"] ;
1099 -> 1100 ;
1101 [label="pH <= 3.3\nmse = 0.1\nsamples = 7\nvalue = 7.1"] ;
1099 -> 1101 ;
1102 [label="mse = 0.0\nsamples = 1\nvalue = 8.0"] ;
1101 -> 1102 ;
1103 [label="mse = 0.0\nsamples = 6\nvalue = 7.0"] ;
1101 -> 1103 ;
1104 [label="mse = 0.0\nsamples = 1\nvalue = 8.0"] ;
1098 -> 1104 ;
1105 [label="citric acid <= 0.3\nmse = 0.2\nsamples = 5\nvalue = 6.3"] ;
1097 -> 1105 ;
1106 [label="mse = 0.0\nsamples = 3\nvalue = 6.0"] ;
1105 -> 1106 ;
1107 [label="mse = 0.0\nsamples = 2\nvalue = 7.0"] ;
1105 -> 1107 ;
1108 [label="alcohol <= 10.8\nmse = 0.2\nsamples = 6\nvalue = 7.3"] ;
1088 -> 1108 ;
1109 [label="mse = 0.0\nsamples = 1\nvalue = 8.0"] ;
1108 -> 1109 ;
1110 [label="mse = 0.0\nsamples = 5\nvalue = 7.0"] ;
1108 -> 1110 ;
1111 [label="chlorides <= 0.0\nmse = 0.4\nsamples = 29\nvalue = 6.1"] ;
1087 -> 1111 ;
1112 [label="density <= 1.0\nmse = 0.1\nsamples = 5\nvalue = 6.8"] ;
1111 -> 1112 ;
1113 [label="mse = 0.0\nsamples = 4\nvalue = 7.0"] ;
1112 -> 1113 ;
1114 [label="mse = 0.0\nsamples = 1\nvalue = 6.0"] ;
1112 -> 1114 ;
1115 [label="citric acid <= 0.1\nmse = 0.3\nsamples = 24\nvalue = 5.9"] ;
1111 -> 1115 ;
1116 [label="mse = 0.0\nsamples = 1\nvalue = 4.0"] ;
1115 -> 1116 ;
1117 [label="volatile acidity <= 0.3\nmse = 0.2\nsamples = 23\nvalue = 6.0"] ;
1115 -> 1117 ;
1118 [label="volatile acidity <= 0.2\nmse = 0.1\nsamples = 18\nvalue = 5.8"] ;
1117 -> 1118 ;
1119 [label="mse = 0.0\nsamples = 15\nvalue = 6.0"] ;
1118 -> 1119 ;
1120 [label="mse = 0.0\nsamples = 3\nvalue = 5.0"] ;
1118 -> 1120 ;
1121 [label="alcohol <= 11.3\nmse = 0.2\nsamples = 5\nvalue = 6.5"] ;
1117 -> 1121 ;
1122 [label="mse = 0.0\nsamples = 3\nvalue = 6.0"] ;
1121 -> 1122 ;
1123 [label="mse = 0.0\nsamples = 2\nvalue = 7.0"] ;
1121 -> 1123 ;
1124 [label="residual sugar <= 1.7\nmse = 0.2\nsamples = 17\nvalue = 5.5"] ;
1080 -> 1124 ;
1125 [label="fixed acidity <= 7.2\nmse = 0.1\nsamples = 10\nvalue = 5.1"] ;
1124 -> 1125 ;
1126 [label="mse = 0.0\nsamples = 8\nvalue = 5.0"] ;
1125 -> 1126 ;
1127 [label="mse = 0.0\nsamples = 2\nvalue = 6.0"] ;
1125 -> 1127 ;
1128 [label="chlorides <= 0.1\nmse = 0.1\nsamples = 7\nvalue = 5.9"] ;
1124 -> 1128 ;
1129 [label="mse = 0.0\nsamples = 6\nvalue = 6.0"] ;
1128 -> 1129 ;
1130 [label="mse = 0.0\nsamples = 1\nvalue = 5.0"] ;
1128 -> 1130 ;
1131 [label="citric acid <= 0.3\nmse = 0.5\nsamples = 64\nvalue = 6.7"] ;
1079 -> 1131 ;
1132 [label="pH <= 3.3\nmse = 0.1\nsamples = 13\nvalue = 6.0"] ;
1131 -> 1132 ;
1133 [label="mse = 0.0\nsamples = 1\nvalue = 7.0"] ;
1132 -> 1133 ;
1134 [label="residual sugar <= 2.6\nmse = 0.0\nsamples = 12\nvalue = 5.9"] ;
1132 -> 1134 ;
1135 [label="mse = 0.0\nsamples = 1\nvalue = 5.0"] ;
1134 -> 1135 ;
1136 [label="mse = 0.0\nsamples = 11\nvalue = 6.0"] ;
1134 -> 1136 ;
1137 [label="residual sugar <= 2.2\nmse = 0.5\nsamples = 51\nvalue = 6.8"] ;
1131 -> 1137 ;
1138 [label="density <= 1.0\nmse = 0.1\nsamples = 3\nvalue = 7.8"] ;
1137 -> 1138 ;
1139 [label="mse = 0.0\nsamples = 1\nvalue = 7.0"] ;
1138 -> 1139 ;
1140 [label="mse = 0.0\nsamples = 2\nvalue = 8.0"] ;
1138 -> 1140 ;
1141 [label="free sulfur dioxide <= 35.5\nmse = 0.4\nsamples = 48\nvalue = 6.8"] ;
1137 -> 1141 ;
1142 [label="citric acid <= 0.4\nmse = 0.4\nsamples = 35\nvalue = 6.6"] ;
1141 -> 1142 ;
1143 [label="fixed acidity <= 6.6\nmse = 0.3\nsamples = 26\nvalue = 6.4"] ;
1142 -> 1143 ;
1144 [label="residual sugar <= 3.0\nmse = 0.2\nsamples = 10\nvalue = 6.1"] ;
1143 -> 1144 ;
1145 [label="mse = 0.0\nsamples = 2\nvalue = 7.0"] ;
1144 -> 1145 ;
1146 [label="citric acid <= 0.3\nmse = 0.1\nsamples = 8\nvalue = 5.9"] ;
1144 -> 1146 ;
1147 [label="mse = 0.0\nsamples = 7\nvalue = 6.0"] ;
1146 -> 1147 ;
1148 [label="mse = 0.0\nsamples = 1\nvalue = 5.0"] ;
1146 -> 1148 ;
1149 [label="residual sugar <= 5.3\nmse = 0.3\nsamples = 16\nvalue = 6.6"] ;
1143 -> 1149 ;
1150 [label="residual sugar <= 2.8\nmse = 0.2\nsamples = 6\nvalue = 6.2"] ;
1149 -> 1150 ;
1151 [label="mse = 0.0\nsamples = 1\nvalue = 7.0"] ;
1150 -> 1151 ;
1152 [label="mse = 0.0\nsamples = 5\nvalue = 6.0"] ;
1150 -> 1152 ;
1153 [label="residual sugar <= 5.5\nmse = 0.2\nsamples = 10\nvalue = 6.9"] ;
1149 -> 1153 ;
1154 [label="mse = 0.0\nsamples = 1\nvalue = 8.0"] ;
1153 -> 1154 ;
1155 [label="residual sugar <= 6.2\nmse = 0.1\nsamples = 9\nvalue = 6.8"] ;
1153 -> 1155 ;
1156 [label="pH <= 3.3\nmse = 0.2\nsamples = 3\nvalue = 6.3"] ;
1155 -> 1156 ;
1157 [label="mse = 0.0\nsamples = 2\nvalue = 6.0"] ;
1156 -> 1157 ;
1158 [label="mse = 0.0\nsamples = 1\nvalue = 7.0"] ;
1156 -> 1158 ;
1159 [label="mse = 0.0\nsamples = 6\nvalue = 7.0"] ;
1155 -> 1159 ;
1160 [label="fixed acidity <= 6.5\nmse = 0.2\nsamples = 9\nvalue = 7.1"] ;
1142 -> 1160 ;
1161 [label="free sulfur dioxide <= 20.5\nmse = 0.2\nsamples = 3\nvalue = 7.7"] ;
1160 -> 1161 ;
1162 [label="mse = 0.0\nsamples = 1\nvalue = 7.0"] ;
1161 -> 1162 ;
1163 [label="mse = 0.0\nsamples = 2\nvalue = 8.0"] ;
1161 -> 1163 ;
1164 [label="density <= 1.0\nmse = 0.1\nsamples = 6\nvalue = 6.9"] ;
1160 -> 1164 ;
1165 [label="mse = 0.0\nsamples = 5\nvalue = 7.0"] ;
1164 -> 1165 ;
1166 [label="mse = 0.0\nsamples = 1\nvalue = 6.0"] ;
1164 -> 1166 ;
1167 [label="density <= 1.0\nmse = 0.2\nsamples = 13\nvalue = 7.2"] ;
1141 -> 1167 ;
1168 [label="total sulfur dioxide <= 181.5\nmse = 0.0\nsamples = 9\nvalue = 7.0"] ;
1167 -> 1168 ;
1169 [label="mse = 0.0\nsamples = 8\nvalue = 7.0"] ;
1168 -> 1169 ;
1170 [label="mse = 0.0\nsamples = 1\nvalue = 6.0"] ;
1168 -> 1170 ;
1171 [label="free sulfur dioxide <= 37.0\nmse = 0.1\nsamples = 4\nvalue = 7.8"] ;
1167 -> 1171 ;
1172 [label="mse = 0.0\nsamples = 1\nvalue = 7.0"] ;
1171 -> 1172 ;
1173 [label="mse = 0.0\nsamples = 3\nvalue = 8.0"] ;
1171 -> 1173 ;
1174 [label="residual sugar <= 1.8\nmse = 0.6\nsamples = 552\nvalue = 6.6"] ;
912 -> 1174 ;
1175 [label="pH <= 3.3\nmse = 0.5\nsamples = 142\nvalue = 6.3"] ;
1174 -> 1175 ;
1176 [label="density <= 1.0\nmse = 0.4\nsamples = 101\nvalue = 6.1"] ;
1175 -> 1176 ;
1177 [label="citric acid <= 0.2\nmse = 0.4\nsamples = 64\nvalue = 6.3"] ;
1176 -> 1177 ;
1178 [label="sulphates <= 0.4\nmse = 0.2\nsamples = 5\nvalue = 5.4"] ;
1177 -> 1178 ;
1179 [label="mse = 0.0\nsamples = 2\nvalue = 5.0"] ;
1178 -> 1179 ;
1180 [label="mse = 0.0\nsamples = 3\nvalue = 6.0"] ;
1178 -> 1180 ;
1181 [label="free sulfur dioxide <= 77.5\nmse = 0.3\nsamples = 59\nvalue = 6.3"] ;
1177 -> 1181 ;
1182 [label="volatile acidity <= 0.3\nmse = 0.3\nsamples = 58\nvalue = 6.3"] ;
1181 -> 1182 ;
1183 [label="free sulfur dioxide <= 39.5\nmse = 0.2\nsamples = 53\nvalue = 6.3"] ;
1182 -> 1183 ;
1184 [label="density <= 1.0\nmse = 0.2\nsamples = 40\nvalue = 6.2"] ;
1183 -> 1184 ;
1185 [label="density <= 1.0\nmse = 0.2\nsamples = 3\nvalue = 6.8"] ;
1184 -> 1185 ;
1186 [label="mse = 0.0\nsamples = 1\nvalue = 6.0"] ;
1185 -> 1186 ;
1187 [label="mse = 0.0\nsamples = 2\nvalue = 7.0"] ;
1185 -> 1187 ;
1188 [label="chlorides <= 0.0\nmse = 0.2\nsamples = 37\nvalue = 6.1"] ;
1184 -> 1188 ;
1189 [label="density <= 1.0\nmse = 0.2\nsamples = 35\nvalue = 6.1"] ;
1188 -> 1189 ;
1190 [label="density <= 1.0\nmse = 0.1\nsamples = 34\nvalue = 6.1"] ;
1189 -> 1190 ;
1191 [label="volatile acidity <= 0.3\nmse = 0.0\nsamples = 16\nvalue = 6.0"] ;
1190 -> 1191 ;
1192 [label="mse = 0.0\nsamples = 14\nvalue = 6.0"] ;
1191 -> 1192 ;
1193 [label="free sulfur dioxide <= 31.0\nmse = 0.2\nsamples = 2\nvalue = 5.5"] ;
1191 -> 1193 ;
1194 [label="mse = 0.0\nsamples = 1\nvalue = 5.0"] ;
1193 -> 1194 ;
1195 [label="mse = 0.0\nsamples = 1\nvalue = 6.0"] ;
1193 -> 1195 ;
1196 [label="volatile acidity <= 0.3\nmse = 0.2\nsamples = 18\nvalue = 6.3"] ;
1190 -> 1196 ;
1197 [label="citric acid <= 0.4\nmse = 0.1\nsamples = 14\nvalue = 6.1"] ;
1196 -> 1197 ;
1198 [label="residual sugar <= 1.6\nmse = 0.1\nsamples = 13\nvalue = 6.1"] ;
1197 -> 1198 ;
1199 [label="mse = 0.0\nsamples = 11\nvalue = 6.0"] ;
1198 -> 1199 ;
1200 [label="alcohol <= 12.4\nmse = 0.2\nsamples = 2\nvalue = 6.3"] ;
1198 -> 1200 ;
1201 [label="mse = 0.0\nsamples = 1\nvalue = 7.0"] ;
1200 -> 1201 ;
1202 [label="mse = 0.0\nsamples = 1\nvalue = 6.0"] ;
1200 -> 1202 ;
1203 [label="mse = 0.0\nsamples = 1\nvalue = 7.0"] ;
1197 -> 1203 ;
1204 [label="alcohol <= 12.0\nmse = 0.2\nsamples = 4\nvalue = 6.8"] ;
1196 -> 1204 ;
1205 [label="mse = 0.0\nsamples = 1\nvalue = 6.0"] ;
1204 -> 1205 ;
1206 [label="mse = 0.0\nsamples = 3\nvalue = 7.0"] ;
1204 -> 1206 ;
1207 [label="mse = 0.0\nsamples = 1\nvalue = 5.0"] ;
1189 -> 1207 ;
1208 [label="mse = 0.0\nsamples = 2\nvalue = 7.0"] ;
1188 -> 1208 ;
1209 [label="citric acid <= 0.3\nmse = 0.2\nsamples = 13\nvalue = 6.5"] ;
1183 -> 1209 ;
1210 [label="free sulfur dioxide <= 40.5\nmse = 0.1\nsamples = 8\nvalue = 6.2"] ;
1209 -> 1210 ;
1211 [label="mse = 0.0\nsamples = 2\nvalue = 7.0"] ;
1210 -> 1211 ;
1212 [label="mse = 0.0\nsamples = 6\nvalue = 6.0"] ;
1210 -> 1212 ;
1213 [label="mse = 0.0\nsamples = 5\nvalue = 7.0"] ;
1209 -> 1213 ;
1214 [label="total sulfur dioxide <= 99.5\nmse = 0.7\nsamples = 5\nvalue = 6.9"] ;
1182 -> 1214 ;
1215 [label="mse = 0.0\nsamples = 2\nvalue = 6.0"] ;
1214 -> 1215 ;
1216 [label="residual sugar <= 1.1\nmse = 0.2\nsamples = 3\nvalue = 7.5"] ;
1214 -> 1216 ;
1217 [label="mse = 0.0\nsamples = 1\nvalue = 8.0"] ;
1216 -> 1217 ;
1218 [label="mse = 0.0\nsamples = 2\nvalue = 7.0"] ;
1216 -> 1218 ;
1219 [label="mse = 0.0\nsamples = 1\nvalue = 8.0"] ;
1181 -> 1219 ;
1220 [label="sulphates <= 0.3\nmse = 0.3\nsamples = 37\nvalue = 5.9"] ;
1176 -> 1220 ;
1221 [label="mse = 0.0\nsamples = 1\nvalue = 8.0"] ;
1220 -> 1221 ;
1222 [label="free sulfur dioxide <= 21.5\nmse = 0.2\nsamples = 36\nvalue = 5.8"] ;
1220 -> 1222 ;
1223 [label="fixed acidity <= 8.1\nmse = 0.2\nsamples = 7\nvalue = 5.4"] ;
1222 -> 1223 ;
1224 [label="alcohol <= 12.2\nmse = 0.2\nsamples = 5\nvalue = 5.6"] ;
1223 -> 1224 ;
1225 [label="mse = 0.0\nsamples = 3\nvalue = 6.0"] ;
1224 -> 1225 ;
1226 [label="mse = 0.0\nsamples = 2\nvalue = 5.0"] ;
1224 -> 1226 ;
1227 [label="mse = 0.0\nsamples = 2\nvalue = 5.0"] ;
1223 -> 1227 ;
1228 [label="total sulfur dioxide <= 125.5\nmse = 0.2\nsamples = 29\nvalue = 6.0"] ;
1222 -> 1228 ;
1229 [label="alcohol <= 12.7\nmse = 0.1\nsamples = 20\nvalue = 6.1"] ;
1228 -> 1229 ;
1230 [label="sulphates <= 0.4\nmse = 0.1\nsamples = 19\nvalue = 6.1"] ;
1229 -> 1230 ;
1231 [label="mse = 0.0\nsamples = 1\nvalue = 7.0"] ;
1230 -> 1231 ;
1232 [label="pH <= 3.3\nmse = 0.0\nsamples = 18\nvalue = 6.0"] ;
1230 -> 1232 ;
1233 [label="mse = 0.0\nsamples = 16\nvalue = 6.0"] ;
1232 -> 1233 ;
1234 [label="density <= 1.0\nmse = 0.2\nsamples = 2\nvalue = 6.5"] ;
1232 -> 1234 ;
1235 [label="mse = 0.0\nsamples = 1\nvalue = 6.0"] ;
1234 -> 1235 ;
1236 [label="mse = 0.0\nsamples = 1\nvalue = 7.0"] ;
1234 -> 1236 ;
1237 [label="mse = 0.0\nsamples = 1\nvalue = 7.0"] ;
1229 -> 1237 ;
1238 [label="density <= 1.0\nmse = 0.2\nsamples = 9\nvalue = 5.6"] ;
1228 -> 1238 ;
1239 [label="mse = 0.0\nsamples = 4\nvalue = 6.0"] ;
1238 -> 1239 ;
1240 [label="residual sugar <= 1.6\nmse = 0.1\nsamples = 5\nvalue = 5.2"] ;
1238 -> 1240 ;
1241 [label="mse = 0.0\nsamples = 4\nvalue = 5.0"] ;
1240 -> 1241 ;
1242 [label="mse = 0.0\nsamples = 1\nvalue = 6.0"] ;
1240 -> 1242 ;
1243 [label="volatile acidity <= 0.4\nmse = 0.6\nsamples = 41\nvalue = 6.8"] ;
1175 -> 1243 ;
1244 [label="volatile acidity <= 0.2\nmse = 0.5\nsamples = 39\nvalue = 6.7"] ;
1243 -> 1244 ;
1245 [label="pH <= 3.3\nmse = 0.3\nsamples = 14\nvalue = 7.2"] ;
1244 -> 1245 ;
1246 [label="citric acid <= 0.4\nmse = 0.2\nsamples = 4\nvalue = 7.8"] ;
1245 -> 1246 ;
1247 [label="mse = 0.0\nsamples = 3\nvalue = 8.0"] ;
1246 -> 1247 ;
1248 [label="mse = 0.0\nsamples = 1\nvalue = 7.0"] ;
1246 -> 1248 ;
1249 [label="total sulfur dioxide <= 108.5\nmse = 0.2\nsamples = 10\nvalue = 7.0"] ;
1245 -> 1249 ;
1250 [label="mse = 0.0\nsamples = 2\nvalue = 6.0"] ;
1249 -> 1250 ;
1251 [label="volatile acidity <= 0.1\nmse = 0.1\nsamples = 8\nvalue = 7.1"] ;
1249 -> 1251 ;
1252 [label="mse = 0.0\nsamples = 1\nvalue = 8.0"] ;
1251 -> 1252 ;
1253 [label="total sulfur dioxide <= 169.5\nmse = 0.1\nsamples = 7\nvalue = 7.1"] ;
1251 -> 1253 ;
1254 [label="mse = 0.0\nsamples = 6\nvalue = 7.0"] ;
1253 -> 1254 ;
1255 [label="mse = 0.0\nsamples = 1\nvalue = 8.0"] ;
1253 -> 1255 ;
1256 [label="alcohol <= 12.6\nmse = 0.4\nsamples = 25\nvalue = 6.4"] ;
1244 -> 1256 ;
1257 [label="chlorides <= 0.0\nmse = 0.3\nsamples = 18\nvalue = 6.2"] ;
1256 -> 1257 ;
1258 [label="volatile acidity <= 0.3\nmse = 0.7\nsamples = 3\nvalue = 7.0"] ;
1257 -> 1258 ;
1259 [label="total sulfur dioxide <= 80.5\nmse = 0.2\nsamples = 2\nvalue = 6.5"] ;
1258 -> 1259 ;
1260 [label="mse = 0.0\nsamples = 1\nvalue = 6.0"] ;
1259 -> 1260 ;
1261 [label="mse = 0.0\nsamples = 1\nvalue = 7.0"] ;
1259 -> 1261 ;
1262 [label="mse = 0.0\nsamples = 1\nvalue = 8.0"] ;
1258 -> 1262 ;
1263 [label="free sulfur dioxide <= 25.0\nmse = 0.2\nsamples = 15\nvalue = 6.1"] ;
1257 -> 1263 ;
1264 [label="citric acid <= 0.3\nmse = 0.1\nsamples = 7\nvalue = 5.9"] ;
1263 -> 1264 ;
1265 [label="pH <= 3.5\nmse = 0.2\nsamples = 2\nvalue = 5.7"] ;
1264 -> 1265 ;
1266 [label="mse = 0.0\nsamples = 1\nvalue = 5.0"] ;
1265 -> 1266 ;
1267 [label="mse = 0.0\nsamples = 1\nvalue = 6.0"] ;
1265 -> 1267 ;
1268 [label="mse = 0.0\nsamples = 5\nvalue = 6.0"] ;
1264 -> 1268 ;
1269 [label="residual sugar <= 1.2\nmse = 0.2\nsamples = 8\nvalue = 6.4"] ;
1263 -> 1269 ;
1270 [label="mse = 0.0\nsamples = 1\nvalue = 7.0"] ;
1269 -> 1270 ;
1271 [label="density <= 1.0\nmse = 0.2\nsamples = 7\nvalue = 6.2"] ;
1269 -> 1271 ;
1272 [label="pH <= 3.3\nmse = 0.2\nsamples = 3\nvalue = 6.7"] ;
1271 -> 1272 ;
1273 [label="mse = 0.0\nsamples = 1\nvalue = 6.0"] ;
1272 -> 1273 ;
1274 [label="mse = 0.0\nsamples = 2\nvalue = 7.0"] ;
1272 -> 1274 ;
1275 [label="mse = 0.0\nsamples = 4\nvalue = 6.0"] ;
1271 -> 1275 ;
1276 [label="chlorides <= 0.0\nmse = 0.1\nsamples = 7\nvalue = 7.1"] ;
1256 -> 1276 ;
1277 [label="mse = 0.0\nsamples = 6\nvalue = 7.0"] ;
1276 -> 1277 ;
1278 [label="mse = 0.0\nsamples = 1\nvalue = 8.0"] ;
1276 -> 1278 ;
1279 [label="mse = 0.0\nsamples = 2\nvalue = 8.0"] ;
1243 -> 1279 ;
1280 [label="free sulfur dioxide <= 25.5\nmse = 0.6\nsamples = 410\nvalue = 6.6"] ;
1174 -> 1280 ;
1281 [label="sulphates <= 0.3\nmse = 0.5\nsamples = 124\nvalue = 6.4"] ;
1280 -> 1281 ;
1282 [label="total sulfur dioxide <= 104.0\nmse = 0.2\nsamples = 8\nvalue = 7.4"] ;
1281 -> 1282 ;
1283 [label="citric acid <= 0.3\nmse = 0.2\nsamples = 6\nvalue = 7.7"] ;
1282 -> 1283 ;
1284 [label="mse = 0.0\nsamples = 4\nvalue = 8.0"] ;
1283 -> 1284 ;
1285 [label="mse = 0.0\nsamples = 2\nvalue = 7.0"] ;
1283 -> 1285 ;
1286 [label="mse = 0.0\nsamples = 2\nvalue = 7.0"] ;
1282 -> 1286 ;
1287 [label="sulphates <= 0.6\nmse = 0.5\nsamples = 116\nvalue = 6.3"] ;
1281 -> 1287 ;
1288 [label="density <= 1.0\nmse = 0.4\nsamples = 92\nvalue = 6.2"] ;
1287 -> 1288 ;
1289 [label="total sulfur dioxide <= 132.0\nmse = 0.3\nsamples = 27\nvalue = 6.5"] ;
1288 -> 1289 ;
1290 [label="density <= 1.0\nmse = 0.2\nsamples = 26\nvalue = 6.4"] ;
1289 -> 1290 ;
1291 [label="mse = 0.0\nsamples = 8\nvalue = 6.0"] ;
1290 -> 1291 ;
1292 [label="total sulfur dioxide <= 92.0\nmse = 0.2\nsamples = 18\nvalue = 6.6"] ;
1290 -> 1292 ;
1293 [label="volatile acidity <= 0.3\nmse = 0.2\nsamples = 12\nvalue = 6.4"] ;
1292 -> 1293 ;
1294 [label="fixed acidity <= 7.0\nmse = 0.2\nsamples = 5\nvalue = 6.8"] ;
1293 -> 1294 ;
1295 [label="mse = 0.0\nsamples = 4\nvalue = 7.0"] ;
1294 -> 1295 ;
1296 [label="mse = 0.0\nsamples = 1\nvalue = 6.0"] ;
1294 -> 1296 ;
1297 [label="mse = 0.0\nsamples = 7\nvalue = 6.0"] ;
1293 -> 1297 ;
1298 [label="mse = 0.0\nsamples = 6\nvalue = 7.0"] ;
1292 -> 1298 ;
1299 [label="mse = 0.0\nsamples = 1\nvalue = 8.0"] ;
1289 -> 1299 ;
1300 [label="fixed acidity <= 8.9\nmse = 0.4\nsamples = 65\nvalue = 6.1"] ;
1288 -> 1300 ;
1301 [label="residual sugar <= 4.5\nmse = 0.3\nsamples = 63\nvalue = 6.1"] ;
1300 -> 1301 ;
1302 [label="chlorides <= 0.0\nmse = 0.3\nsamples = 25\nvalue = 5.9"] ;
1301 -> 1302 ;
1303 [label="volatile acidity <= 0.2\nmse = 0.2\nsamples = 7\nvalue = 5.5"] ;
1302 -> 1303 ;
